{"lstm.weight_ih_l0": [[0.0037210904993116856], [-0.00013604824198409915], [-2.7753805625252426e-05], [-1.6307326404785272e-06], [-0.0001985396957024932], [0.0002450555912218988], [-4.036050540889846e-06], [-0.00040527834789827466], [-1.6127569324453361e-07], [-3.6754790926352143e-06], [1.750325168359268e-06], [-0.003998671658337116], [-0.0008917250670492649], [0.0024294669274240732], [-0.00039878522511571646], [-0.000568465213291347], [-2.766213583527133e-06], [-0.00791324581950903], [-8.284619252663106e-05], [0.0021386551670730114], [2.0343491996754892e-05], [-2.2095207441452658e-06], [-0.00014365673996508121], [-0.0020289539825171232], [-0.0004674520459957421], [0.012926246039569378], [-0.0016927700489759445], [-0.0008833569008857012], [-0.0031520037446171045], [1.0444928193464875e-06], [7.144195114960894e-05], [0.00018701149383559823], [-0.016534190624952316], [-0.0007050532149150968], [-3.554274371708743e-05], [-2.5726949388626963e-06], [-0.0008189447689801455], [-0.00029778480529785156], [-1.0436651791678742e-05], [-0.0002432958281133324], [-6.73982867738232e-07], [-8.137635450111702e-05], [9.103735010285163e-07], [-0.018435729667544365], [-0.001079050125554204], [0.002051085699349642], [-0.0003835218376480043], [-0.0005129380151629448], [-1.4877880857966375e-05], [-0.005120900459587574], [-0.00018730288138613105], [0.0017344218213111162], [-6.556367225130089e-06], [-5.033065463067032e-06], [-0.00025748126790858805], [-0.001039730035699904], [-0.00041588261956349015], [0.020358648151159286], [-0.0015166776720434427], [-0.0013082526857033372], [-0.0035325749777257442], [-5.598781172011513e-08], [8.034891652641818e-05], [-0.0003062933683395386], [6.337158679962158], [-0.04257547855377197], [-0.003132560523226857], [-0.0008445995044894516], [0.045707907527685165], [-0.02917279489338398], [-0.002108389511704445], [-0.06385836750268936], [0.0001353713305434212], [-0.0007649961626157165], [-0.0038595637306571007], [0.1946379393339157], [-0.00972706452012062], [-0.05630433186888695], [-0.024224482476711273], [-0.029568204656243324], [-0.002338709542527795], [0.0023990380577743053], [-0.012969646602869034], [-0.04533081874251366], [-0.0006196480826474726], [-0.0009570872643962502], [-0.017826508730649948], [-0.46138525009155273], [0.022565804421901703], [0.019844146445393562], [0.04938436672091484], [0.02062765695154667], [2.7652487754821777], [-0.0005099305999465287], [0.010353270918130875], [-0.05506188049912453], [-0.00238022836856544], [-0.0001493977615609765], [-3.609858322306536e-05], [-1.7611242810744443e-06], [-0.00025899085449054837], [0.00022207575966604054], [-4.444504611456068e-06], [-0.0007028593099676073], [-2.9251052069412253e-07], [-1.4654258848167956e-05], [1.918392854349804e-06], [-0.00900897104293108], [-2.4129054509103298e-05], [0.002541812602430582], [-0.00042259154724888504], [-0.0006252609891816974], [-4.877024366578553e-06], [-0.004861234687268734], [-0.00014791989815421402], [0.0022308318875730038], [1.4980760170146823e-05], [-2.7330038392392453e-06], [-0.00021073936659377068], [-0.009266965091228485], [-0.0004591566394083202], [0.03018048033118248], [-0.0018043239833787084], [-0.0009044798789545894], [0.00982421450316906], [9.155741054200917e-07], [6.823677540523931e-05], [0.00022629107115790248]], "lstm.weight_hh_l0": [[-0.023361342027783394, -0.0051231710240244865, 0.00045248400419950485, -0.00013901815691497177, 0.005350497551262379, -0.003391845617443323, -0.00036182720214128494, 0.007856147363781929, 3.666448901640251e-05, -0.0010748942149803042, -0.0003712137695401907, 0.014845491386950016, -0.00012292640167288482, -0.008300378918647766, -0.0009669396677054465, -0.002090479014441371, -0.0005025264108553529, -0.7054098844528198, -0.00030681901262141764, -0.008482778444886208, 0.0001106860363506712, -0.0002302123320987448, -0.0009585873922333121, 0.007883003912866116, 0.0016222570557147264, 0.7158548831939697, 0.0036877011880278587, 0.003541799494996667, 0.0063211978413164616, -0.00011347315739840269, 0.0012788550229743123, -0.00640296284109354], [-0.00248504220508039, -0.00020809940178878605, 7.337499482673593e-06, -2.850841156032402e-06, 0.00012866477482020855, -0.00013563226093538105, 1.0402325642644428e-05, -0.00017837824998423457, 7.492553777410649e-07, 2.3686530767008662e-05, 9.202563887811266e-06, -0.001534778974018991, 0.00031940481858327985, -0.00042355660116299987, -0.00013639229291584343, -4.530251317191869e-05, 9.433671039005276e-06, 0.011576899327337742, 1.62947217177134e-05, 0.00025465257931500673, -9.710875019663945e-07, 8.385963155888021e-06, 8.779916242929175e-06, 0.0015391730703413486, -5.666964716510847e-05, -0.011752201244235039, 9.949891682481393e-05, 7.109876605682075e-05, 0.0005924461875110865, -1.2129648894187994e-06, -3.99657801608555e-05, 0.0001831392291933298], [-1.1757572792703286e-05, 2.2430554054153617e-06, 2.2750084553990746e-06, 1.7890133818809772e-08, -1.695114860922331e-06, 1.319684088230133e-06, -8.760811454067152e-08, 3.4576441976241767e-06, -1.0256204063807672e-07, -2.4261121325253043e-06, 6.003459702697e-07, -5.9239057009108365e-05, 3.413819649722427e-05, -6.51208665658487e-07, 1.6450426301162224e-06, 2.722527824516874e-06, -2.6542636533122277e-08, 4.626777081284672e-05, 7.092383924600654e-08, -1.513622805759951e-06, -2.644494543346809e-07, 7.489387598980102e-08, -3.330615072627552e-07, -7.73837928136345e-06, -5.396728397499828e-07, -6.074633347452618e-05, -3.4861386666307226e-07, 5.046770183980698e-07, -4.706995969172567e-05, 2.0087122720724437e-07, -5.36844709131401e-07, 9.811169547901955e-07], [-2.529013272578595e-06, 1.5090000715645147e-07, 6.9770180743944366e-09, 1.2496801815586878e-08, -2.6515348849898146e-07, 6.683331577050922e-08, 1.8016471869941597e-08, 3.0308723353300593e-07, -4.839943112955325e-09, 1.8548343305724302e-08, 2.769762375010032e-08, -1.1888845392604708e-06, 6.54764846785838e-07, 3.270884008088615e-07, 4.6055390612309566e-08, 7.663524570489244e-08, 1.5925122553994697e-08, -3.1091781238501426e-06, 3.370306700389847e-08, 2.7666706614581926e-07, -6.977163025112532e-08, 1.6139861003239275e-08, 3.3449694569753774e-08, 1.5866754665694316e-07, 2.0540639411592565e-07, 2.815979314618744e-06, 5.7767749694903614e-08, -1.0597971566994602e-07, 2.5319175165350316e-06, 9.52223011552178e-09, -8.399960194083178e-08, 3.3865643445096794e-07], [-0.0022214644122868776, -0.00015652485308237374, 3.1939225664245896e-07, 7.3076612352451775e-06, 0.00011236011050641537, 9.577057790011168e-05, -4.351270945335273e-06, -0.00019658557721413672, 4.043307399115292e-06, -2.52700483542867e-05, 2.1465757527039386e-06, -0.00221857032738626, 0.0003728075243998319, -0.00019275551312603056, -6.934234988875687e-06, -6.790297629777342e-05, -9.910576409311034e-06, 0.014279386959969997, 1.384475763188675e-05, -0.0003144500369671732, 7.373107109742705e-06, -8.878017069946509e-06, -2.8683789423666894e-05, 0.0010402698535472155, 9.167868847725913e-05, -0.014555982314050198, -9.325572318630293e-05, 6.348358874674886e-05, -0.0005034597124904394, 7.637974704266526e-06, 3.103927883785218e-05, -7.167679723352194e-05], [-0.0007865717634558678, -0.00014647563511971384, -1.443308974558022e-07, -1.785788981578662e-06, 5.106694152345881e-05, 7.228249160107225e-05, -4.762849130202085e-06, -0.00011443359835539013, -7.999054787433124e-07, 9.446230251342058e-06, 1.1715570508386008e-05, -0.0010198656236752868, 0.00041045041871257126, -4.571719910018146e-05, -1.8077837012242526e-05, 9.751463039719965e-06, 3.2647576517774723e-06, 0.00622890330851078, -1.9637249351944774e-05, -8.016284118639305e-05, -1.0780516277009156e-05, -2.624721219035564e-06, -4.097404598724097e-05, 0.00035101789399050176, -4.7940255171852186e-05, -0.006133493036031723, 0.00015650627028662711, 1.5536628779955208e-05, -0.0010205800645053387, -1.4372088799063931e-06, 2.338966805837117e-05, -5.9685928135877475e-05], [-9.546664841764141e-06, -1.9834114795003188e-08, 1.046934556825363e-07, 2.2961813783695106e-08, 2.3453543462892412e-07, 3.018619736394612e-07, 1.0826426688481661e-07, -1.5631335372745525e-06, -2.9054509909087756e-08, -1.131648161845078e-07, 5.125282953599708e-08, -5.294735728966771e-06, 5.34943046659464e-06, 2.571164486653288e-06, -5.6111524315838324e-08, 5.730485952426534e-08, 7.606639940149762e-08, 7.326411832764279e-06, -4.098069439351093e-09, 1.8233396303912741e-06, 8.873783485796594e-09, 2.7758655818388434e-08, 1.3346407001790794e-07, 3.073819470955641e-06, -2.2654882059214287e-07, -4.997884843760403e-06, -1.3299580814418732e-07, -8.853126018948387e-07, 1.1696859473886434e-05, 4.3286966899813706e-08, -1.9192017930436123e-07, -3.3652611364232143e-07], [-0.0005748318508267403, 0.0003665710100904107, -0.00020315831352490932, 3.401545836823061e-05, -0.00019350764341652393, -0.0016953666927292943, 1.1948497558478266e-05, 0.0023345903027802706, 2.9180318961152807e-06, 0.0003849723725579679, 2.617333666421473e-05, -0.0004331258242018521, -0.001478276215493679, -6.230996223166585e-05, -0.0007906295359134674, -0.0005873483023606241, 0.00011443534458521754, 0.02124779298901558, -2.571108052507043e-05, 0.0002113841474056244, -0.00011298411118332297, -5.360426439438015e-05, 0.0004626995651051402, 5.2168325055390596e-05, 0.0003565582155715674, -0.02215089648962021, -0.0001424865040462464, 0.001555740600451827, -0.0010976125486195087, 2.698111711652018e-05, 0.000372210459318012, -0.0009999442845582962], [-1.036190610648191e-06, 2.082341765685669e-08, 1.1693147783375935e-08, -4.221702543105721e-09, -1.0499476843506272e-07, 3.603571130383898e-08, 4.269053111016774e-09, 3.780369581818377e-07, 1.5885643911417446e-09, -5.31341157739007e-08, 6.876192504279288e-09, -2.3526170878085395e-07, 4.873203351962729e-07, 1.3490524253256808e-08, -1.1063574589798009e-07, -1.626821699574066e-08, -3.2826172891020633e-09, -1.4483093764283694e-06, 1.1270560040799182e-09, 7.150079994744374e-08, 3.0379631255073036e-08, -2.1713635334208448e-09, 5.403576608387084e-08, 9.149385959972278e-07, 5.6486840094294166e-08, 4.935039896736271e-07, -3.6270114378567087e-07, -6.130360219458453e-08, -4.310669510232401e-07, 4.900997385703931e-10, 3.574263374162001e-08, 1.2704064999979892e-07], [-0.00012552845873869956, -1.4926632502465509e-05, 7.284899083970231e-08, -2.8612930691451766e-07, -9.799125109566376e-06, 4.49025901616551e-06, -6.640611900365911e-07, 1.3640215911436826e-05, -2.356300683459267e-07, 2.572997345851036e-06, 4.556522981147282e-07, -0.00012986946967430413, 8.66773771122098e-05, 1.262882233277196e-05, -3.6910714698024094e-06, -7.145656581997173e-06, -1.4140128712369915e-07, 0.0005503144348040223, 3.061226152567542e-07, -7.62716808822006e-06, 1.288562998524867e-06, -2.762284907475987e-07, -3.108540795437875e-06, -2.6825271561392583e-05, 4.105391781195067e-06, -0.0006163424113765359, 3.0119936127448454e-06, 2.0625438992283307e-06, 0.00020199276332277805, 2.2526734255734482e-07, 3.5599703096522717e-06, 1.2053347745677456e-05], [-4.3960676521237474e-07, 1.1554786851775134e-06, 2.774713152575714e-07, -4.9471537977296975e-09, -2.94555718483025e-07, 2.9119794362486573e-06, 6.742011038340934e-08, 2.895119905588217e-06, -7.903767595962563e-08, -3.012677325386903e-07, 3.221430233679712e-07, -4.084947249793913e-06, -6.966089358684258e-07, 3.7645111206074944e-07, 1.199054736389371e-06, 5.02656234857568e-07, 3.093398106557288e-07, 2.920685801655054e-05, 3.1944486522661464e-07, -2.3387981400446733e-06, -1.1691483337017416e-08, 7.517393640910086e-08, -2.5879569420794724e-07, 2.59361149801407e-06, -6.423224476748146e-07, -2.57312258327147e-05, 7.558385277661728e-07, 6.412783477571793e-07, -1.8912707673734985e-05, 1.439444616835317e-07, 2.0518990595519426e-07, 2.967814225485199e-07], [0.006724182516336441, -0.00013657388626597822, 0.0003266232961323112, -5.595663969870657e-05, -5.9058889746665955e-05, 0.00012329290620982647, -5.8169360272586346e-05, 0.005843331106007099, -3.753772034542635e-05, -0.000276801991276443, 4.9815993406809866e-05, -0.0020619696006178856, 0.0028592587914317846, 0.00041061447700485587, -0.00013075958122499287, 0.00040084190550260246, -6.2329534557648e-05, -0.27779069542884827, 5.434203194454312e-05, -0.00010173785267397761, 1.494866592111066e-05, -4.084945248905569e-05, 7.3353381594643e-05, 0.002260772278532386, 0.0003514403651934117, 0.2810058295726776, -0.00047708084457553923, 0.0002120952121913433, 0.006108952220529318, 6.95265262038447e-05, 0.00021430656488519162, 0.00010317773558199406], [-0.005128366872668266, -0.0008205560152418911, 6.0488906456157565e-05, -5.984443851048127e-05, 0.0011781638022512197, -0.001160010346211493, -0.0001296584086958319, 0.00034163310192525387, -9.244583452527877e-06, -0.00039200219907797873, -0.0001791256945580244, 2.951856004074216e-05, 0.0003315261274110526, -0.0031744600273668766, -0.0007812611293047667, -0.00043087033554911613, -0.0001819127210183069, 0.0001706941402517259, 3.145058872178197e-05, -0.002944392617791891, 0.00022417429136112332, -9.079859592020512e-05, -9.741372196003795e-05, 0.0028067061211913824, 0.0008199676522053778, -0.0006024523172527552, 0.0006790279876440763, 0.0014869894366711378, -0.004795605316758156, -1.0947976988973096e-05, 0.00032020630897022784, -0.001719213556498289], [-0.00416539516299963, -6.720726378262043e-05, 5.759142368333414e-05, -8.801953299553134e-07, -0.00028469861717894673, 1.5805737348273396e-05, 7.919266863609664e-06, -0.0008313650032505393, 1.7692036635708064e-06, -5.973844963591546e-05, -9.825333108892664e-06, -0.004525411874055862, 0.0020960255060344934, 0.0017466612625867128, -7.026392268016934e-05, 0.00019845730275847018, -4.50736752100056e-06, 0.018358096480369568, -2.3385495296679437e-05, 0.001503840321674943, -1.2566726582008414e-05, 1.0784285223053303e-05, 3.1481627956964076e-05, 0.002652843715623021, 0.0001406786177540198, -0.014473477378487587, -0.0001264738675672561, -0.0001187807647511363, -0.0012123879278078675, 2.0860228687524796e-05, -0.00012463214807212353, 0.0006964525673538446], [0.00013467941607814282, -0.00010126452980330214, 5.355259872885654e-06, -3.264059387220186e-06, -3.355857188580558e-05, -8.007496944628656e-06, -8.86793714016676e-06, 5.63759240321815e-05, 3.2595851280348143e-06, 1.3412372936727479e-05, -7.521102816099301e-07, -0.0003896334965247661, -4.6768524043727666e-05, -0.00018538240692578256, -3.7072353734401986e-05, -6.339021638268605e-05, -3.141042725474108e-06, 0.00032755208667367697, 1.0372554243076593e-05, -0.00010917388135567307, -7.442720288963756e-06, -5.579558091994841e-06, 3.675314655993134e-05, 0.00042405747808516026, 4.995360359316692e-05, -6.48590357741341e-05, -5.8272999012842774e-05, 3.7369609344750643e-06, -1.1622680176515132e-05, -1.5221185094560497e-06, -1.3774553735856898e-05, -0.0001419239561073482], [-0.0001677695836406201, 4.5690860133618116e-05, -2.5447222924412927e-06, 1.8251764686283423e-06, -3.353889042045921e-05, -1.2211448847665451e-05, 5.914185749134049e-06, 0.0001597973459865898, 1.0139842743228655e-06, 9.667454833106603e-06, 2.1081341401441023e-06, -0.0012070515658706427, 0.0005592968664132059, -0.00014306105731520802, -1.9328304915688932e-05, -3.0112929380265996e-05, 4.114073135497165e-07, 0.005720240995287895, 6.601590939681046e-06, 0.0001074342435458675, 5.401931503001833e-06, 2.8652912078541704e-06, -6.476420821854845e-06, -0.000284678942989558, 5.7297682360513136e-05, -0.0057900226674973965, 4.38448041677475e-05, -2.6446614356245846e-06, -0.001191813382320106, 8.294559847854543e-07, 1.1140407877974212e-05, 5.629309089272283e-05], [-1.6134978068294004e-05, 5.1035442538704956e-08, 1.3331967352314678e-07, 2.5525809022042267e-08, -1.2749399047606857e-06, 8.386501804125146e-07, 5.388096013803079e-08, -2.436727299937047e-07, -5.300394434470945e-08, -1.959009949814572e-07, 1.0055093468963605e-07, -6.260765076149255e-06, 6.224491698958445e-06, 5.977581167826429e-07, 5.34305399924051e-07, -2.8437654009394464e-08, 1.3686917554878164e-07, 1.6367379430448636e-05, 6.089489801297532e-08, 9.369558711114223e-07, -2.292455718588826e-07, 3.749485699700017e-08, -1.8250854338930367e-07, 2.1032983568147756e-06, -6.020032401465869e-07, -1.3464341463986784e-05, -2.0324523575254716e-07, -3.51366452377988e-07, 1.3041434613114689e-05, 4.447544910135548e-08, -2.0318159954513249e-07, 1.2886823697044747e-06], [-0.018291877582669258, 0.002688996959477663, 0.0007808333029970527, 9.163394861388952e-05, -0.005054856650531292, 0.005076979286968708, 0.00023206097830552608, -0.0008408980211243033, -7.600525714224204e-05, -0.0006491488311439753, 0.0006763868150301278, -0.005855432245880365, 0.0012049912475049496, 0.009037896059453487, 0.0006458123680204153, 0.004719685297459364, 0.000512941274791956, -0.1135321855545044, 0.0027161547914147377, 0.007368671242147684, 0.0009883143939077854, 0.00012193463044241071, 0.003682005451992154, 0.011185895651578903, -0.00082023860886693, 0.11580775678157806, -0.005978470202535391, -0.003411991288885474, -0.0166349858045578, 7.905033271526918e-05, -0.000729879189748317, 0.005509929731488228], [-0.00014192430535331368, -6.939373633940704e-06, -2.5531089704600163e-06, -5.423249831437715e-07, -1.8051585357170552e-05, 1.0990370356012136e-06, -7.527701200160664e-07, -0.00010994066542480141, 4.1041141685127513e-07, 4.686648026108742e-06, -1.7489496713096742e-06, -0.0007293368689715862, 0.00028044311329722404, 9.064584446605295e-06, 5.860241799382493e-06, -2.9557272682723124e-06, -1.8009723135037348e-07, 0.0020757250022143126, 2.0395289539010264e-05, -9.177589527098462e-05, 7.212732271000277e-06, 1.298398046856164e-06, 2.2462059860117733e-05, -8.10607016319409e-05, -1.2251652151462622e-05, -0.00216510146856308, 1.703395537333563e-05, 1.519441866548732e-06, -0.0003946059150621295, 9.72942189036985e-07, 2.7383271117287222e-06, 2.9045826522633433e-05], [-0.0032926425337791443, -2.2128966520540416e-05, 4.09411259170156e-05, 4.485091267270036e-06, 0.0001698948908597231, -0.00011925306171178818, 1.8961240130010992e-05, -0.0008568094344809651, -1.3430289982352406e-05, -6.270151789067313e-05, -6.895206752233207e-07, -0.00320987100712955, 0.00173361343331635, 0.0009442346636205912, -3.5936900530941784e-05, 9.11347015062347e-05, -1.370359768770868e-05, 0.01113051362335682, 4.657256795326248e-06, 0.000911652809008956, -1.2255430192453787e-05, 6.335068519547349e-06, -2.1603986169793643e-05, 0.0023835597094148397, 9.668983693700284e-05, -0.008630606345832348, -0.0001765127817634493, -0.00015264535613823682, -0.0015131954569369555, 1.5546589565929025e-05, -6.0544385632965714e-05, 0.0003023692697752267], [-5.0712376832962036e-05, 1.293301465921104e-07, -5.911754783483048e-07, 1.7706739185996412e-07, -2.9581301532743964e-06, -7.117519089661073e-06, 4.418646426529449e-07, 8.016306310310028e-06, 1.1503190933126461e-07, -1.07288167328079e-06, -3.171136313540046e-07, -8.97703503142111e-05, 3.739830572158098e-05, 7.121130693121813e-06, 5.1565330068115145e-06, -2.6868301574722864e-06, 2.337419431341914e-07, 0.0002866456634365022, 1.3436806511890609e-06, 1.0384851520939264e-05, 2.3532209070253884e-07, -3.7172225120229996e-07, 1.709954176476458e-06, 1.1639696822385304e-05, 2.218914687546203e-06, -0.0002973537193611264, 2.807264536386356e-07, 5.6718695304880384e-06, 1.286277620238252e-05, 1.3058375714081194e-08, 1.2944324225827586e-06, -1.1371589607733767e-05], [-5.807499292131979e-06, 5.045197326580819e-07, -5.756046306260032e-09, 2.5534944825267303e-08, -1.8016518765762157e-07, 2.3337125298894534e-07, 2.5662419744776344e-08, -1.3107677432344644e-06, -1.2756592226992325e-08, 1.0804249939155852e-08, 5.256326929270472e-09, -2.416202960375813e-06, 1.3644762475450989e-06, 5.553148980652622e-07, -5.68979032777861e-07, 1.6048142015279154e-07, 5.438198158458363e-08, -5.89890441915486e-06, 3.31794929309126e-08, 5.552855100177112e-07, -1.3428557110728434e-07, 2.812919497330313e-08, -9.371137821290176e-08, 9.174324304694892e-07, 4.5137716142562567e-07, 5.15184729010798e-06, -5.700067049474455e-07, -2.0591326688190748e-07, 4.963842457073042e-06, 1.839284813343056e-08, -1.5044905410377396e-07, 1.0025235042121494e-07], [-0.00016270557534880936, 9.594074072083458e-06, -1.7974998627323657e-06, 7.087346034495567e-07, 4.349395749159157e-05, -7.383738557109609e-05, -4.786732006323291e-06, 4.03828416892793e-05, -6.058949111320544e-07, 3.713595560839167e-06, -1.3385593774728477e-05, -0.0009749619057402015, 0.0002874028868973255, -5.983914888929576e-05, -3.8964917621342465e-05, -9.141174814430997e-06, -9.068176950677298e-06, 0.002912244526669383, 3.277249197708443e-05, 3.163117071380839e-05, 1.2515424714365508e-05, -8.122950703182141e-07, 4.232998617226258e-05, -0.00011946394806727767, 5.9143010730622336e-05, -0.0029952002223581076, 1.9078837794950232e-05, 8.730809349799529e-05, -0.0007201384287327528, 1.5903906387393363e-06, 2.205547843914246e-06, -4.3676747736753896e-05], [0.010456139221787453, -0.001324353856034577, -5.21546317031607e-05, -1.1191756129846908e-05, 0.0019653807394206524, -0.0010347266215831041, 2.995937393279746e-06, 0.004319131840020418, 4.395259020384401e-05, -0.00018139406165573746, -0.00014736992307007313, -0.017148572951555252, -0.006548088043928146, -0.003017611103132367, -0.00029601692222058773, -0.0005572383524850011, -6.19100101175718e-05, -0.2660562992095947, -0.00016792590031400323, -0.0026587522588670254, -3.207262489013374e-05, -2.380648220423609e-05, -0.00029088128940202296, -0.01483692042529583, 0.0004446612438187003, 0.27223750948905945, 0.0008712536655366421, 3.428204217925668e-05, -0.0010533391032367945, -5.1501439884305e-05, 0.0002697192248888314, -0.002594397868961096], [6.711675086989999e-05, -9.145226795226336e-05, 5.042924385634251e-06, 5.2192845032550395e-06, 0.00011195027036592364, -7.35917201382108e-05, 6.8194249251973815e-06, -0.0002120960270985961, 3.6813980841543525e-07, 9.186070201394614e-06, -1.514494670118438e-06, -0.0005016546929255128, -1.1111524145235308e-05, -5.404651165008545e-05, -4.764916957356036e-05, -2.2289568732958287e-06, -1.0951751391985454e-05, -0.00024057758855633438, 9.307997061114293e-06, 0.0001568466832395643, -1.8002479009737726e-06, 4.739266387332464e-06, 1.8416734747006558e-05, 0.0004751297237817198, 5.163684909348376e-05, 0.0005141580477356911, -0.00014468288281932473, -5.1170009101042524e-05, -5.4514202929567546e-05, 1.1089608733527712e-06, 4.319563231547363e-06, -0.0001222454447997734], [0.006835105363279581, 0.007777141872793436, 0.00038161169504746795, 0.0001273315428989008, -0.008265947923064232, 0.004856182262301445, 0.00039794048643670976, -0.0007605437422171235, -0.00011343638470862061, 0.0012246178230270743, 0.00046691804891452193, -0.003153244499117136, 0.007902027107775211, 0.011515802703797817, 0.0003596633905544877, 0.0043358406983315945, 0.0004833653219975531, -0.11981921643018723, 3.628185368143022e-06, 0.009708969853818417, -0.00038642733125016093, 0.00016118741768877953, 0.000958487275056541, -0.0029525861609727144, -0.0007208309252746403, 0.11779443919658661, -0.0071729994378983974, -0.004604837857186794, 0.010705213062465191, 0.00022198136139195412, -0.001926753087900579, 0.010137864388525486], [-0.0011783461086452007, -6.29370188107714e-05, -3.475636913208291e-05, 1.6938656699494459e-06, 0.0001031403080560267, 0.00010510055290069431, 1.4203298633219674e-05, 0.00024045846657827497, -6.4869755078689195e-06, 2.5711222406243905e-05, -3.015022048202809e-05, -0.0026111574843525887, 0.0004015481099486351, -0.0001190307448268868, 0.00013601699902210385, -7.983584509929642e-05, -1.0753978131106123e-05, 0.015412562526762486, -9.590693480276968e-06, -0.0004798048466909677, -1.7005080735543743e-05, -2.3203588170872536e-06, 1.1080572221544571e-05, -0.00024503632448613644, -4.6510700485669076e-05, -0.01572509855031967, 2.1280728105921298e-05, -9.808536560740322e-05, -0.001825698185712099, 7.0060568759799935e-06, 5.663569027092308e-06, 1.53615401359275e-05], [-0.0004401257901918143, -3.734154597623274e-05, 1.0431027476442978e-05, 1.336735294898972e-06, 4.16864495491609e-05, 6.939117156434804e-07, 1.010222240438452e-05, 0.00012811423221137375, -1.985962853723322e-06, -1.2938613508595154e-05, -5.821058493893361e-06, -0.0006285281851887703, 0.0006172796129249036, 8.45838658278808e-05, 2.0258003132767044e-06, -2.8235364879947156e-05, 3.2601310522295535e-06, 0.002538790227845311, -7.546329470642377e-06, 0.00020209029025863856, -2.5152094167424366e-06, 8.482852535962593e-07, -1.853692447184585e-05, -0.00031493374262936413, 9.518011211184785e-06, -0.0018813955830410123, 3.819828634732403e-05, -9.338054223917425e-05, 0.0006701966049149632, 6.139078323030844e-06, -8.377684935112484e-06, -5.885819700779393e-05], [0.0030763763934373856, 0.002202404895797372, -0.00010242105054203421, -2.935859447461553e-05, -0.002660867990925908, 0.001719803549349308, 8.319065091200173e-05, 0.007052358239889145, -3.108297096332535e-05, 2.431038774375338e-05, 0.00020814788877032697, 0.004823251627385616, 0.0006991991540417075, 0.0011562358122318983, 0.0005043152486905456, 0.001117740641348064, 5.1255494327051565e-05, -0.5278708934783936, 0.0006556508596986532, 0.0016632810002192855, 6.825223681516945e-05, -3.035826375707984e-05, 0.0009361970005556941, -0.000152995518874377, -0.0005128746852278709, 0.5318677425384521, -0.0033226192463189363, -0.001945582334883511, 0.004200961906462908, 2.2993241145741194e-05, -8.461887045996264e-05, 0.0023472942411899567], [-5.887044380870066e-07, 4.342645354427077e-08, 1.925459436336041e-08, -1.1899914387214494e-10, 2.438541741867084e-07, 1.9818548935290892e-07, 1.3022543043916812e-09, 3.9126331330407993e-07, 1.7649863792712495e-09, -7.833811821456038e-08, 3.051612651461255e-08, -8.467361567454645e-08, 1.1137589126519742e-06, 4.901917805000267e-07, 1.4928127711755224e-07, 1.113130210228519e-08, 1.4490161959201941e-08, 3.204527274647262e-07, 5.500434241412222e-08, 4.246267053531483e-07, -6.917767692016241e-09, 2.549467525980731e-09, 1.8527982703631096e-08, 8.571477110308479e-07, 3.776721868575805e-08, -2.497922423572163e-06, -3.0724862654096796e-07, -1.367163946497385e-07, -1.5456488426934811e-06, -1.6674659431004102e-09, -1.294513936045405e-07, -3.545493143519707e-07], [-7.528001151513308e-05, 9.592150490789209e-06, 1.2958939805685077e-06, 4.0380763266512076e-07, -3.0402834454434924e-06, 6.183405730553204e-06, 8.078568498604e-07, -4.797876317752525e-05, 2.177155238314299e-07, 2.7657284817905747e-07, -1.8894372715294594e-06, -5.067601159680635e-05, -1.7396499970345758e-05, 1.197798155772034e-05, -4.837439519178588e-06, 4.623556833394105e-06, 6.773859695385909e-07, 0.00023774022702127695, 6.325914910121355e-06, 1.299975519941654e-05, 2.27716827794211e-06, 8.474410151393386e-08, 8.863133189151995e-06, 6.0479611420305446e-05, -7.030069355096202e-06, -0.00025379733415320516, -9.042601050168741e-06, -9.324487564299488e-07, -0.00018807627202477306, -2.3103703483684512e-07, -5.101918759464752e-06, 3.912846295861527e-06], [-0.002915443852543831, 0.00015973889094311744, 1.2755466741509736e-05, 1.5940413504722528e-06, -0.0002280310436617583, -0.00013880709593649954, -5.545616659219377e-06, -0.0001083739916794002, -8.754346708883531e-06, -3.1311956263380125e-05, 3.913330601790221e-06, -0.0032901116646826267, 0.0009428873308934271, 0.0005856878124177456, 5.378077912610024e-05, 2.987842890433967e-05, -1.1920306860702112e-05, 0.019437342882156372, 2.8954767913091928e-05, -0.0005674105486832559, 1.0075265890918672e-05, -5.512474672286771e-06, -4.0223436371888965e-05, 0.0020129254553467035, -7.200828986242414e-05, -0.019573679193854332, 8.551940118195489e-05, -0.00013584195403382182, -0.0013851741096004844, 1.091748708859086e-05, 6.748103623976931e-05, 0.0004753899702336639], [-0.007701399270445108, -0.0025294795632362366, 3.643021045718342e-05, -0.00023034162586554885, 0.001750252558849752, -0.001620193594135344, -0.0002972089860122651, -0.00033870612969622016, -0.0002114219532813877, -0.0007761031156405807, -0.00024884281447157264, 0.04009392857551575, -0.01137883123010397, -0.002487355377525091, -0.0028072583954781294, -0.00027263365336693823, -0.00043513422133401036, 0.21307018399238586, 0.00021102582104504108, -0.003172712866216898, 0.0004294730897527188, -0.0003452775999903679, -2.861869870685041e-05, -0.00986283179372549, 0.002826397307217121, -0.21932612359523773, 0.0008034983184188604, 0.002283939393237233, 0.021242452785372734, 0.0001910428691189736, 0.001096078078262508, -0.0017467043362557888], [-0.002419359516352415, -0.00028748036129400134, 7.93804520071717e-06, -7.838832061679568e-06, 0.00011335314775351435, -9.897429845295846e-05, 1.6441372281406075e-05, -0.0001535627816338092, 4.355993496574229e-06, 2.5388188078068197e-05, 1.2925280316267163e-05, -0.0013728903140872717, 0.0001669477642280981, -0.0004547522694338113, -0.00013228731404524297, -3.246421692892909e-05, 1.560911550768651e-05, 0.014088836498558521, 6.814430889789946e-06, 0.00024492526426911354, -1.422374953108374e-05, 8.644472472951747e-06, 2.76642240351066e-05, 0.001325884833931923, -5.584023165283725e-05, -0.014347270131111145, 8.687290392117575e-05, 8.276419248431921e-05, 0.00044358568266034126, -4.185100806353148e-06, -3.1859424780122936e-05, 0.00016991738812066615], [-6.039266736479476e-06, 2.7325227165420074e-06, 2.0812751699850196e-06, 2.4665084197295073e-08, -2.318654878763482e-06, 2.205075361416675e-06, -8.085299896265496e-08, 1.8934570107376203e-06, -9.385314569954062e-08, -2.3985471671039704e-06, 6.998841399763478e-07, -6.172189023345709e-05, 3.0941366276238114e-05, -1.1437018656579312e-06, 1.4906989918017644e-06, 2.9687244023079984e-06, 6.190413159856689e-08, 0.00012775533832609653, -6.527528739752597e-08, -2.111830099238432e-06, -3.3767844342946773e-07, 9.209112761254801e-08, -5.094502739666495e-07, -1.183943277283106e-05, -5.66993890060985e-07, -0.00013846217188984156, -1.5459308997378685e-06, 6.856873824290233e-07, -4.665350206778385e-05, 2.38643394823157e-07, -3.840332283289172e-07, 1.6529975255252793e-06], [-9.124195230469923e-07, -1.525464199403359e-07, -1.5925483154433095e-09, 1.0123767602010503e-08, -1.4889502608639305e-07, 1.864475507318275e-08, 1.0359880064925164e-08, 1.2065655141668685e-07, -2.6065691827170667e-09, 3.869137898959707e-08, -1.9136816575837656e-09, -9.455180816075881e-07, 7.951641691761324e-07, 3.6098342093282554e-08, 1.4789897306854982e-07, -3.088582190002853e-08, 1.2241017088854278e-08, -2.4398223104071803e-06, 4.7584087781160633e-08, 2.9749583063676255e-07, -1.2920505554347983e-08, 1.8724227501820678e-08, -7.921298816881972e-08, -1.1809603392975987e-06, -2.2244941533244855e-07, 2.3572540612804005e-06, 1.906330169276771e-07, -1.3777625440525298e-07, 2.729063908191165e-06, 7.613643049353414e-09, -3.153473926431616e-09, 2.0829381242037925e-07], [-0.001894229557365179, -0.00012705418339464813, -2.6090399387612706e-06, 6.885525181132834e-07, 0.00020851497538387775, 7.356923015322536e-05, 1.1080737749580294e-05, -0.0001741574378684163, 6.880195542180445e-06, -2.7861307899001986e-05, -1.636050728848204e-05, -0.0021497271955013275, 0.00029253141838125885, -0.00012130430695833638, -8.256682485807687e-05, -6.619933992624283e-05, -2.9341736080823466e-06, 0.018223533406853676, 1.0472431313246489e-06, -0.00030620169127359986, 1.399277607561089e-06, 1.3176850188756362e-07, -4.262871516402811e-05, 0.0007665159646421671, 0.00011878387886099517, -0.01854746788740158, -6.41372607788071e-05, 4.8387377319158986e-05, -5.416659405454993e-06, 7.327660568989813e-06, -3.2094922062242404e-05, -0.0001748778740875423], [-0.0006434038514271379, -0.00013245674199424684, -1.79889229912078e-06, -1.4885119981045136e-07, -4.716213152278215e-05, 3.0245777452364564e-05, 3.869754436891526e-07, -3.184573870385066e-05, -9.557899147694116e-07, 6.685945663775783e-06, 5.1982360673719086e-06, -0.0009559719474054873, 0.00045433000195771456, 6.192698492668569e-05, 2.9411343348328955e-05, -2.5953069780371152e-05, -6.781853699067142e-06, 0.008591831661760807, -2.7198970201425254e-05, 2.7893809601664543e-05, -5.195033736526966e-09, -6.5927001742238645e-06, -3.8565169234061614e-05, 0.00013224678696133196, 3.61805796273984e-05, -0.008589447475969791, 0.00014246722275856882, -2.5324785383418202e-05, -0.0006130100227892399, -1.06213065009797e-08, -1.0522431693971157e-05, 2.1232888684608042e-05], [-1.6555170532228658e-06, 4.380742382181779e-07, 1.0592771104711574e-07, 1.7934192797497417e-08, -6.291624572440924e-07, -5.7455395108263474e-08, 7.920186817500507e-08, -1.0768354741230723e-06, -3.3172703695072414e-08, -8.266650297628075e-08, 1.3587225566880079e-08, -5.753993264079327e-06, 6.065108664188301e-06, 1.0187083034907118e-06, 4.624589564627968e-07, 3.0012213869667903e-07, 6.394693485844982e-08, 1.8415690647088923e-05, -3.285594374347056e-08, 2.1545336039707763e-06, 6.610898495296169e-09, 2.3522218839389097e-08, 1.2724680686915235e-07, -4.362291292636655e-06, 2.4681163779405324e-08, -1.5596153389196843e-05, -2.6719021661847364e-08, -1.0070484677271452e-06, 1.1602727681747638e-05, 5.138679881611097e-08, 1.3951121502486785e-07, 6.33524507520633e-07], [0.00046123654465191066, 5.217248690314591e-05, -0.00012660387437790632, 3.811153874266893e-05, 0.00014568127517122775, -0.0015666369581595063, 4.288562195142731e-05, 0.002080845180898905, -6.138916432973929e-06, 0.00028886873042210937, -8.138726116158068e-05, -0.0009918023133650422, -0.0009193033911287785, -0.00018439945415593684, -0.0008568861521780491, -0.00046418391866609454, 0.00011068052845075727, 0.0029303175397217274, 7.731432560831308e-06, 0.00026022427482530475, -5.3357071010395885e-05, -2.404340193606913e-07, 0.0004194220236968249, -0.0007431815611198545, 0.0005057673552073538, -0.003177383216097951, 8.94471668289043e-05, 0.0014607678167521954, -0.0012590616242960095, 2.7712387236533687e-05, 0.0002849553129635751, -0.0009517637081444263], [-1.1019581052096328e-06, -1.9151532626437984e-07, 1.7418868125673725e-08, -3.2481108913628987e-09, 9.481155416324327e-09, 6.402554220130696e-08, 7.267939583499583e-09, 1.7521784911878058e-07, -4.2519388010475723e-10, -1.445000386013362e-08, 6.373627403633009e-09, -5.200163855079154e-07, 2.593381509541359e-07, 8.111963012424894e-08, 1.8648785271579982e-07, 2.7457616624815273e-08, 3.14537551560079e-09, -2.3181523829407524e-06, -2.994789483068416e-08, 1.0333421229802298e-08, 3.075700760746258e-08, -5.749017262246525e-09, 6.159591237064888e-08, 6.690102622997074e-07, -2.0405707346071722e-07, 1.4561869647877757e-06, -2.811318893236603e-07, -2.042819780001537e-08, -5.946504870735225e-07, 2.523645736829394e-09, -2.3318918351833418e-08, 3.7319615842079656e-08], [-8.82331223692745e-05, -1.3537535778596066e-05, -1.883277036540676e-07, -2.3717039709936216e-07, -7.801926585671026e-06, 2.9361531233007554e-06, -9.824291282711783e-07, 1.0754922186606564e-05, -2.532464691284986e-07, 2.4734713406360243e-06, 1.2036905445711454e-06, -0.00013326635234989226, 8.212734246626496e-05, 1.3426934856397565e-05, -8.283136594400275e-07, -5.3123399084142875e-06, -4.64806646505167e-07, 0.0002624120097607374, -6.890942358950269e-07, -9.917610441334546e-06, 1.2139589671278372e-06, -3.9311920829732117e-08, -2.154585672542453e-06, -5.342948134057224e-05, 9.306493211624911e-07, -0.00035971650504507124, -4.27685517934151e-06, 4.181836629868485e-06, 0.0002154796093236655, 3.132831807306502e-07, 1.909575530589791e-06, 9.109503480431158e-06], [-2.313521463293e-06, -8.599284342380997e-07, 4.966756961266583e-08, -2.410939003993917e-09, 7.002059874139377e-07, 2.3093361960491166e-06, -8.634299319965066e-08, -3.031774213013705e-06, -7.68984449450727e-08, 1.4660869851468306e-08, 4.197515295345511e-07, -3.524571184243541e-06, 3.7078416426084004e-07, -1.1088975497841602e-06, 9.251937171939062e-08, -3.4603959875312285e-07, 4.3357346157790744e-08, 6.989370740484446e-05, -7.583142291878175e-08, -1.4784125141886761e-06, -1.2817761785299808e-07, -5.4481681388551806e-08, -1.419200543750776e-07, 4.995309609512333e-06, -8.72344742219866e-07, -6.439004937419668e-05, 6.784434845030773e-07, 2.890720907089417e-07, -1.4994174307503272e-05, 9.799069289329054e-08, 2.655532398421201e-07, -1.026508698487305e-06], [-0.013592620380222797, -0.00011413314496167004, 0.0002013865450862795, 4.8110880015883595e-05, 0.00040966004598885775, -3.974884748458862e-06, 2.2814914700575173e-05, 0.008081614039838314, 8.660455932840705e-05, -9.06526402104646e-05, 9.91879278444685e-05, -0.010241229087114334, -0.0013997080968692899, 0.00046253029722720385, 0.0018372893100604415, 2.711312845349312e-07, 6.425408355426043e-05, 0.06701845675706863, 7.223035208880901e-05, 6.788328755646944e-05, -5.609908839687705e-06, 9.808456525206566e-05, 5.802753730677068e-05, -0.002600516192615032, -0.0014930304605513811, -0.0656389594078064, 0.0003016931004822254, 1.1734635336324573e-05, -0.011995927430689335, -7.807604561094195e-05, -0.00011733031715266407, -0.00029776262817904353], [-0.005005764774978161, -0.000570994452573359, 2.8548805858008564e-05, -5.355124085326679e-05, 0.000876382808201015, -0.0009743584087118506, -0.0001012169013847597, 0.0006556216976605356, -8.690190043125767e-06, -0.00030742393573746085, -0.00016431267431471497, -0.00014913588529452682, 0.00024576036958023906, -0.003030152525752783, -0.0006882044253870845, -0.00026938121300190687, -0.00015146442456170917, 0.023841869086027145, 7.930147694423795e-05, -0.0025906937662512064, 0.00020858616335317492, -8.695406722836196e-05, 1.325173070654273e-05, 0.0029530287720263004, 0.0007469150004908442, -0.024356478825211525, 0.00042500649578869343, 0.0011400050716474652, -0.004118506796658039, -1.0704980013542809e-05, 0.0002509156474843621, -0.0013799547450616956], [-0.003789373906329274, -0.00020191818475723267, 4.433446883922443e-05, -1.385579707857687e-05, 6.465479964390397e-05, -2.2579915821552277e-06, 2.391475936747156e-05, -0.0007990224985405803, 2.65376456809463e-06, 3.282555553596467e-05, 2.712216883082874e-06, -0.004489109851419926, 0.002073271432891488, 0.0015809762990102172, 0.00025065132649615407, 0.00018996252038050443, 3.355046828801278e-06, 0.028041688725352287, 5.607928414974594e-07, 0.0011478285305202007, -1.4524467587762047e-05, -4.391560651129112e-06, -7.048378756735474e-05, 0.002236040309071541, -0.00019421881006564945, -0.025075722485780716, 4.094101313967258e-06, -0.0001699627609923482, 0.0005944590084254742, 3.0860974220559e-06, -0.00013210355245973915, 0.0006797551177442074], [-4.493264714255929e-05, -0.00011416767665650696, 5.015373972128145e-06, 5.608389983535744e-06, -0.00010620007378747687, -9.186769602820277e-06, -4.1319362935610116e-06, 6.679404759779572e-05, 3.042970774913556e-06, 1.684620110609103e-05, 1.4097255188971758e-05, -0.0001508460845798254, -6.108099478296936e-05, -0.00018173251010011882, -3.659995854832232e-05, -3.968313831137493e-05, -8.03909915703116e-06, -0.00016153676551766694, 1.0952679076581262e-05, -0.00013451579434331506, -9.204843081533909e-06, -6.607240720768459e-06, 4.892547440249473e-05, 0.00040478052687831223, 4.9123707867693156e-05, 0.0004468257538974285, -7.280886347871274e-05, 3.5706507333088666e-05, 0.00032451574224978685, 4.460373475012602e-06, -1.4160526916384697e-05, -9.305147250415757e-05], [2.8029040549881756e-05, 6.559322355315089e-05, -3.394463419681415e-06, 1.951207650563447e-06, -2.1812677005073056e-05, -8.796749170869589e-06, 6.4092364482348785e-06, 0.00012947335198987275, 6.340828804241028e-07, 1.0066765753435902e-05, 2.6285406420356594e-06, -0.001186972949653864, 0.0004883385263383389, -0.0001387569063808769, -1.2998778402106836e-05, -3.992811616626568e-05, 6.021261924615828e-07, 0.007670448161661625, 2.9196235118433833e-06, 9.79852193268016e-05, 4.97966175316833e-06, 3.3708354294503806e-06, -1.2256092304596677e-05, -0.0003567350213415921, 5.3319330618251115e-05, -0.007757676765322685, 3.50908849213738e-05, 5.468966264743358e-06, -0.0009559550671838224, 1.436306774849072e-06, 1.764844091667328e-05, 5.331423744792119e-05], [-6.36781851426349e-06, 1.7705770005704835e-07, 1.271956193704682e-07, -1.698805895955502e-08, 3.034224391740281e-07, 3.8895819898243644e-07, 2.7251196854649606e-09, -1.4830704913038062e-06, -2.9902391673886086e-08, 1.9226568781505193e-07, 8.320626676550091e-08, -4.4333446567179635e-06, 6.500307790702209e-06, 1.379763148179336e-06, -4.5078962784828036e-07, 5.056610916653881e-07, 1.3462306469591567e-07, 4.292596349841915e-05, 1.2563056372982828e-07, 3.909409542757203e-07, 1.6709131500647345e-07, 4.1191121624706284e-08, 1.5822325849512708e-07, -4.840294423047453e-06, 6.965605621189752e-07, -3.9527098124381155e-05, 8.204883670259733e-07, -2.4299299639096716e-07, 1.7469708836870268e-05, 3.938776416134715e-08, 2.456511367654457e-07, -3.5428547562332824e-07], [-0.03638943284749985, 0.006345401983708143, 0.0008358967606909573, -2.317323742317967e-05, -0.007117866072803736, 0.00704615842550993, 4.382603947306052e-05, -0.0002653046976774931, -5.950031481916085e-05, -0.0007617530645802617, 0.0005695715663023293, -0.004843113012611866, -0.0004905996611341834, 0.004041660577058792, 0.00026092774351127446, 0.006157882511615753, 0.00022321722644846886, -0.21387802064418793, 0.003259002696722746, 0.0017623568419367075, 0.0005304050864651799, -7.449911936419085e-05, 0.004292731638997793, 0.028440941125154495, -3.687235584948212e-05, 0.2177640199661255, -0.009782986715435982, -0.0013551188167184591, -0.040117297321558, 8.860926755005494e-06, -0.001613135333172977, 0.007412358187139034], [-7.42890770197846e-05, -7.393678970402107e-06, -2.966380407087854e-06, -3.77556375497079e-07, -2.3627893824595958e-05, 4.004632501164451e-06, 1.1889756024174858e-07, -0.00011519355030031875, 4.950290986016626e-07, 6.030992153682746e-06, -1.0592284525046125e-06, -0.0007294064271263778, 0.00025312660727649927, 1.4307865058071911e-05, 8.564167728764005e-06, -5.835737283632625e-06, 1.6534789892830304e-07, 0.0014829831197857857, 1.9130242435494438e-05, -8.394691394641995e-05, 7.107477358658798e-06, 1.3631931778945727e-06, 2.167919956264086e-05, -0.00010226727317785844, -1.3220493201515637e-05, -0.0015606688102707267, 1.844190774136223e-05, -7.054793968563899e-06, -0.000373915652744472, 1.12688030640129e-06, 3.5193604617234087e-06, 2.8945367375854403e-05], [-0.0032797481399029493, -9.278193465434015e-05, 4.290378274163231e-05, 5.105492618895369e-06, 0.00024518626742064953, -0.00014634137914981693, 2.409366970823612e-06, -0.0008098704274743795, -9.888261956803035e-06, -3.9511760405730456e-05, -1.0216697774012573e-05, -0.0032009535934776068, 0.0017247542273253202, 0.0004771388485096395, 0.00022285962768364698, -6.692516035400331e-05, -1.5841129425098188e-05, 0.017344757914543152, 3.904602272086777e-05, 0.0008153260569088161, -3.793663199758157e-05, 6.841301456006477e-06, 5.4040487157180905e-05, 0.0022143919486552477, -0.00011596427793847397, -0.015406092628836632, -7.845103391446173e-05, -6.203031807672232e-05, 0.0006416946416720748, 1.6478441466460936e-05, -7.692212238907814e-05, -0.00013659527758136392], [-4.130569868721068e-05, 5.613953362626489e-06, -4.2586819404277776e-07, 5.94460800584784e-08, -5.139530912856571e-06, -4.998204531148076e-06, -1.2963198514626129e-08, -1.3900753401685506e-06, -3.994318831246346e-08, -8.898137480173318e-07, -6.274459565247525e-07, -9.133451385423541e-05, 3.094875501119532e-05, -5.585388862527907e-08, 4.836931566387648e-07, -2.548447355366079e-06, -5.8665534652391216e-08, 0.00014686981739941984, 1.0153624998565647e-06, 1.2475122730393196e-06, 3.485104969058739e-07, 5.2430323194130324e-08, 1.7611964722163975e-06, 6.642079824814573e-06, 5.431945737655042e-06, -0.00015541640459559858, 7.281955731741618e-07, -1.251750290975906e-06, 3.071649916819297e-05, -1.1131314181511698e-07, 9.304071681981441e-07, -4.1604826037655585e-06], [-3.1661322736908915e-06, 6.622172463721654e-07, 7.965553550093318e-09, 1.8365621912153074e-08, -5.455887048810837e-07, 4.8836668042895326e-08, 1.6427872395752274e-08, 5.621814125333913e-10, -5.783580281359946e-09, -2.0507298970073862e-08, 1.1802615773603975e-08, -2.008068577197264e-06, 1.2347582014626823e-06, -7.501125764974859e-08, 3.5978914070255996e-07, -6.760653548099071e-08, 2.8276312846742258e-08, -4.644716227630852e-06, 8.513219285077867e-08, 4.61053417666335e-07, -1.34712365706946e-07, 3.8264033719315194e-08, -1.9249881688665482e-07, -1.1587229664655752e-06, -5.510685241461033e-07, 4.43782118964009e-06, -5.872522024219506e-07, -2.516813708552945e-07, 5.766076810687082e-06, 1.4370875156544116e-08, -1.0352442814109963e-07, 6.689909355372947e-07], [-6.352198397507891e-05, 1.7892580217448995e-07, -2.3790930754330475e-06, 1.170959762930579e-06, 3.0462371796602383e-05, -2.7172696718480438e-05, -5.722246442019241e-06, 4.897879625787027e-05, -8.225792953453492e-07, 5.291210072755348e-06, -1.235782474395819e-05, -0.0009723185794427991, 0.00025932746939361095, -0.00017111626220867038, -4.209418693790212e-05, -1.6625570424366742e-05, -8.613920726929791e-06, 0.002594858407974243, 2.888269409595523e-05, -1.3686854799743742e-05, 1.1981761417700909e-05, -5.460302077153756e-07, 3.772350828512572e-05, -0.00016653886996209621, 5.972055805614218e-05, -0.0026670165825635195, 2.4088280042633414e-05, 7.733407255727798e-05, -0.0007116032647900283, 1.8492128219804727e-06, 4.41167412645882e-06, -4.621941479854286e-05], [0.014924687333405018, -0.0008764475351199508, -0.00015714429900981486, 2.4043964003794827e-05, 0.0012220470234751701, -0.0007527692941948771, -2.247206066385843e-05, 0.000868746661581099, 7.959960930747911e-05, -4.809697566088289e-05, -3.5943041439168155e-05, -0.016030317172408104, -0.007558004464954138, -0.0010249241022393107, 0.0006181762437336147, -0.000689807056915015, -2.696207957342267e-06, 0.26501649618148804, -0.0001664394949330017, -0.0008972833747975528, -1.5469631762243807e-05, 5.128092743689194e-05, -0.0002691940753720701, -0.027139753103256226, -0.0005437210202217102, -0.26363450288772583, 0.00112642883323133, 0.000442386488430202, -0.004453688859939575, -8.945430454332381e-05, 0.00016257743118330836, -0.0013167823199182749], [-0.00010831742838490754, -0.00010079274215968326, 4.854031885770382e-06, 2.343650749025983e-06, 6.821683200541884e-05, -9.057784336619079e-05, 1.4971551536291372e-06, -0.0002404106198810041, 6.244822543521877e-07, 1.3307260815054178e-05, -8.662008440296631e-06, -0.0002515411761123687, -1.673262522672303e-05, -4.180040559731424e-05, -4.554428596748039e-05, -5.964237061562017e-06, -9.890550245472696e-06, -0.0003968477831222117, 1.0533341992413625e-05, 0.00018295683548785746, -5.079275524622062e-06, 3.5434359233477153e-06, 3.157287210342474e-05, 0.00044246946345083416, 5.218544538365677e-05, 0.0006846913020126522, -0.00014780592755414546, 1.8519403965910897e-05, 0.00019387155771255493, 4.831270416616462e-06, 1.2996599252801389e-05, -0.0001569784653838724], [0.010442131198942661, 0.015012497082352638, 0.0002009216696023941, 0.0003646807454060763, -0.015724746510386467, 0.009447857737541199, 0.0007966207922436297, -0.01094875205308199, -9.465264884056523e-05, 0.00302059855312109, 0.0009246997069567442, -0.01484580896794796, 0.0069585819728672504, 0.023149898275732994, -0.0007409327663481236, 0.0075989714823663235, 0.0010899117914959788, -0.22428953647613525, -0.0009690733859315515, 0.020210852846503258, -0.0014295910950750113, 0.0005989344208501279, 0.0006270674057304859, -0.010270632803440094, -0.00047249445924535394, 0.2210753709077835, -0.013284009881317616, -0.008864390663802624, 0.011213747784495354, 0.0003759516985155642, -0.003909350838512182, 0.018672244623303413], [-0.0005172316450625658, -5.866517312824726e-06, -2.341288563911803e-05, 9.737607797433157e-06, 0.0001990768068935722, 6.983351340750232e-05, 1.052514198818244e-05, 0.00029969384195283055, -5.00554233440198e-06, 7.0092050918901805e-06, -3.517317963996902e-05, -0.002406882354989648, 0.0005211695097386837, -3.969895624322817e-05, 0.0001953686587512493, -7.724693568889052e-05, -1.2235472240718082e-05, 0.019315345212817192, -9.521731954009738e-06, -0.0004831331316381693, -2.0281395336496644e-05, -4.01182387577137e-06, 5.9398571465862915e-06, -0.0007336396956816316, -1.158309169113636e-05, -0.01968996971845627, 9.198612679028884e-05, -0.00018275809998158365, -0.0012448241468518972, 9.924463483912405e-06, -1.664742740103975e-05, -8.155022078426555e-05], [0.000543070666026324, -2.4863848011591472e-05, 9.069302905118093e-06, -8.661727406433783e-07, -3.440221553319134e-05, -1.9722538127098233e-05, 6.458429197664373e-06, -5.094807420391589e-06, -1.919371015901561e-06, -1.083217193809105e-05, -7.090466169756837e-08, -0.0003401664143893868, 0.00036067364271730185, 3.764050779864192e-05, 4.933808304485865e-05, 6.691729140584357e-06, 1.941176833497593e-06, 0.004223315976560116, -1.182827759294014e-06, 3.887203638441861e-05, -7.419391295115929e-06, -1.2527530088846106e-06, 4.091687515028752e-06, -0.0008194676483981311, -2.9732853363384493e-05, -0.0036530192010104656, 1.4025517884874716e-06, -2.1825369913131e-05, -0.0001589884632267058, 4.283028374629794e-06, -1.2653991689148825e-05, 3.007215309480671e-05], [0.020395398139953613, -1.881536445580423e-05, 0.0003339489921927452, -5.350777064450085e-05, 2.9269023798406124e-05, 0.0004542300303000957, -7.533048483310267e-05, -0.0018905687611550093, -1.7514825231046416e-05, -0.0005630519008263946, 9.850233618635684e-05, 0.007363807410001755, 0.008605537004768848, -0.0016771360533311963, 9.490454976912588e-05, 0.0004454591835383326, -0.00010731810471042991, 0.1620817333459854, 0.0005062282434664667, -0.0010381580796092749, 0.00021260239009279758, -7.845008076401427e-05, 0.0005642069154419005, -0.0002880865358747542, 2.54549813689664e-05, -0.16371096670627594, -0.0009891849476844072, 0.0002043918357230723, 0.0112604396417737, -5.910223990213126e-06, 2.467360900482163e-05, -0.00045037048403173685], [-1.5480043202842353e-06, -4.168327905063052e-08, 3.167456341657271e-08, -1.4335270748233597e-09, 2.9297950732143363e-08, 2.2112666897555755e-07, 3.3402636212542802e-09, 7.246626410051249e-08, 1.4603762643616847e-09, -8.383670291323142e-08, 1.802146698537399e-08, 1.4314973384443874e-07, 8.736814720577968e-07, 3.3657792641861306e-07, 1.1187921700184233e-08, -9.690024427300159e-08, 1.5611352210953555e-08, 1.05136814454454e-06, 3.940120762990773e-08, 4.73336513096001e-07, -6.075438818697876e-09, 1.1867502536233587e-09, -5.6061047359889926e-08, 1.6573070524827926e-06, -1.395495985434536e-07, -2.8966678655706346e-06, 4.951118626195239e-08, -1.9773273152168258e-07, -1.1672543678287184e-06, -1.2465326548749545e-09, 6.799406548907427e-08, -1.3452660141410888e-07], [-8.33941885503009e-05, 1.2259282812010497e-05, 8.106273412522569e-07, -1.2094767498638248e-07, -4.4090807023167145e-06, 7.408225428662263e-06, -2.9250827537907753e-08, -4.745365004055202e-05, -1.0484760082363209e-07, 1.6415825143667462e-07, -2.994842134285136e-07, -4.201272895443253e-05, -1.7159687558887526e-05, -6.0800102801295e-06, -1.4090977856540121e-05, 3.849773293040926e-06, -9.178633035844541e-07, 0.000500802299939096, 5.9503513512026984e-06, -1.0597395885270089e-05, 2.1256175841699587e-06, 7.694319492657087e-07, 8.53985966386972e-06, 7.175416976679116e-05, -4.852392066823086e-06, -0.0005209323135204613, -1.1926447768928483e-05, -6.053025572327897e-06, -0.00016657155356369913, -1.1587943049562455e-07, -5.304645128489938e-06, 6.2320532379089855e-06], [-0.0028702435083687305, 0.000153127039084211, 4.736160008178558e-06, -6.1912869568914175e-06, -0.00011402048403397202, -0.00013253052020445466, 1.6729743947507814e-05, -0.00011632946552708745, -7.4700328696053475e-06, -4.205356526654214e-05, 5.862564648850821e-06, -0.003243591170758009, 0.0008323020301759243, 0.00044670506031252444, 0.0001344434858765453, 1.683646405581385e-05, 2.948690962512046e-06, 0.024900071322917938, -6.695165211567655e-06, -0.0006392842624336481, 5.970896381768398e-07, 1.501449787610909e-05, -6.828056939411908e-05, 0.0018847513711079955, -0.00017423718236386776, -0.02518286556005478, 9.427753684576601e-05, -0.0001507134729763493, -0.0004174696805421263, 1.1216204256925266e-05, 4.025881935376674e-06, 0.000393820577301085], [-0.08183407038450241, 0.021031664684414864, -0.002510451478883624, 0.00032568370806984603, -0.01978643611073494, 0.011192827485501766, 0.0008954353397712111, 0.09226620197296143, 0.00020603183656930923, 0.0011633029207587242, 0.0016681611305102706, -0.24173182249069214, -0.1240382269024849, 0.026367953047156334, 0.028281502425670624, 0.010041741654276848, 0.0010434414725750685, 0.06008205935359001, 0.007547612302005291, 0.0214054137468338, 0.0003787229652516544, 0.000465694407466799, 0.009296564385294914, 0.3281094431877136, -0.025671424344182014, 0.0230428297072649, -0.02225402742624283, -0.008870497345924377, 0.39915579557418823, -0.0003965347714256495, -0.004759650211781263, 0.025537434965372086], [-0.014530758373439312, -0.01447710394859314, -0.0011502064298838377, -0.0002366736443946138, 0.02303381823003292, -0.017356913536787033, -0.0012790807522833347, 0.007543634157627821, 0.00029584707226604223, -0.0024816752411425114, -0.00195855344645679, -0.00463526975363493, 0.0015969079686328769, -0.033102069050073624, -0.00019550067372620106, -0.013391096144914627, -0.0017522703856229782, 0.0003006150363944471, -0.0020300205796957016, -0.032054733484983444, 0.0013089306885376573, -0.00018446322064846754, -0.004284036345779896, 0.005287925712764263, 0.00021161357290111482, -0.0003953190753236413, 0.020013073459267616, 0.016433387994766235, -0.030218299478292465, -0.0004437234019860625, 0.0040819416753947735, -0.02513955533504486], [-0.0031297674868255854, -0.002610141644254327, -0.0002063550491584465, -1.764147964422591e-05, 0.0028525644447654486, -0.001854949165135622, -6.308804586296901e-05, -0.0005858134245499969, 2.2903535864315927e-05, 6.34792959317565e-05, -0.00016441142361145467, 0.004998779855668545, 0.0008376996265724301, -0.00243758806027472, -0.00043277404620312154, -0.0018168087117373943, -6.021094668540172e-05, 0.0004377305740490556, -0.0002508915204089135, -0.0018522022292017937, 0.00034028274239972234, -4.837806955038104e-06, -0.0003975349827669561, 0.004690590314567089, 0.0004129066364839673, 0.00027807627338916063, 0.0036558168940246105, 0.0008932726923376322, -0.0029717967845499516, -4.673734292737208e-05, 0.0005625791382044554, -0.003202510764822364], [-2.8428807127056643e-05, -1.8480292055755854e-05, -3.0897592750989133e-06, -6.150456499653956e-08, 0.00017729232786223292, -0.00013347589992918074, -2.35135962611821e-06, -0.0001323452452197671, 4.6426646349573275e-07, -3.549292523530312e-05, -1.5108671505004168e-05, -0.00017302152991760522, -0.0002661164035089314, -0.00016707390022929758, -8.258737216237932e-05, -0.00011713758431142196, -2.580005912022898e-06, 0.00047470463323406875, -6.679688522126526e-05, -9.420377318747342e-05, -5.3339306759880856e-05, -2.4504365683242213e-06, -9.984364442061633e-05, -2.2374057152774185e-05, 0.00010782650497276336, -0.00030591373797506094, 0.00022061384515836835, 5.274353679851629e-05, -0.0006048771319910884, -3.2453374387841905e-06, 1.2951181815878954e-06, -0.00022254278883337975], [0.021429507061839104, 0.02154691517353058, 0.001431948971003294, 0.00046139294863678515, -0.020350242033600807, 0.019538166001439095, 0.0012341259280219674, -0.005349138751626015, -0.0002350857394048944, 0.0021825507283210754, 0.0020671673119068146, -0.002965644933283329, -0.0018791758920997381, 0.0298195481300354, 0.00012871120998170227, 0.015549453906714916, 0.0016253696521744132, -0.000126941769849509, 0.0022751488722860813, 0.027458565309643745, -0.0009751615580171347, 0.0005900009418837726, 0.005403586663305759, -0.010411331430077553, -0.0009285324485972524, 0.0005994365783408284, -0.022830389440059662, -0.01483320351690054, 0.034976840019226074, 0.0004901084466837347, -0.005095185711979866, 0.02315756119787693], [-0.01838686875998974, -0.014707300812005997, -0.0010955777252092957, -0.0002142498706234619, 0.017842313274741173, -0.00912557728588581, -0.0007617061492055655, 0.0020138374529778957, 0.0001793739211279899, -0.001303497701883316, -0.001094849780201912, 0.007135171443223953, -0.0011683565098792315, -0.022284483537077904, -0.00046930357348173857, -0.010330152697861195, -0.0007205596193671227, 0.0009176876628771424, -0.0019521854119375348, -0.0185883529484272, 0.0003334531793370843, -0.00018550791719462723, -0.004772121086716652, 0.01155927125364542, 0.0010894651059061289, -0.00035793695133179426, 0.016749246045947075, 0.009480605833232403, -0.024055859073996544, -0.0003094443236477673, 0.004597657360136509, -0.020284317433834076], [-0.00109795609023422, -0.000838248641230166, -5.275455259834416e-05, -2.702356141526252e-06, 0.0011120883282274008, -0.0005305783124640584, -1.7402117009623908e-05, 0.0002176718262489885, 4.366888788354117e-06, -0.00011091145279351622, -5.0851391279138625e-05, 0.0003857710980810225, -0.0002671458350960165, -0.0006695608608424664, 0.00010895052400883287, -0.0006719095399603248, -2.0968514945707284e-05, -0.0006308352458290756, -0.00015254743630066514, -0.00048666700604371727, -1.5771023754496127e-05, -5.541097834793618e-06, -0.00029298634035512805, 0.0005863693077117205, -9.580623009242117e-05, 0.00015439404523931444, 0.0013503639493137598, 0.00024545047199353576, -0.0018518778961151838, -8.521911695424933e-06, 0.00022967689437791705, -0.0012840373674407601], [0.03566917032003403, -0.02556457556784153, -0.005826007574796677, -0.0004448352847248316, 0.0326041653752327, -0.034094374626874924, -0.0018006125465035439, -0.012626366689801216, 0.0009669219143688679, -0.002403893042355776, -0.0051352884620428085, 0.031568799167871475, -0.006186552345752716, -0.014107272028923035, -5.7306751841679215e-05, -0.03345904499292374, -0.0014507502783089876, -0.003925430588424206, -0.009389149956405163, -0.011151336133480072, 0.0013033808209002018, 0.0001312268723268062, -0.01696000248193741, -0.03667868673801422, -7.22402473911643e-05, 0.004512964282184839, 0.04488136246800423, 0.018709251657128334, 0.05716047063469887, -0.0012307894648984075, 0.015479877591133118, -0.02658555470407009], [0.0008918847888708115, 0.00035985090653412044, 2.748928409346263e-06, 2.5013596314238384e-06, -0.00019659796089399606, 5.935021545155905e-05, 8.617023013357539e-06, -0.000517899461556226, -4.094455107406247e-06, 1.1398335118428804e-05, 4.170465672359569e-06, -0.0002788045385386795, -0.00021865402231924236, 0.00022445860668085515, -0.00018209767586085945, 8.36956751300022e-05, 9.661643161962274e-06, 0.001378318527713418, -3.1953382858773693e-05, 0.00022276098025031388, -5.212098403717391e-05, -1.6819035408843774e-07, -1.134412013925612e-05, -0.00042138691060245037, 0.00016657319793011993, -0.0007151401368901134, -0.00022947581601329148, -9.196283644996583e-05, 0.0007032222929410636, 2.778597263386473e-06, -4.2460949771339074e-05, 0.00019613883341662586], [0.0021059538703411818, 0.0006722543621435761, 0.0003561055345926434, -5.292163405101746e-05, -0.0006114734569564462, 0.0011725840158760548, -5.630321174976416e-05, 0.0015132683329284191, -4.6017870772629976e-05, -0.0007374941487796605, 9.390941704623401e-05, -0.007823645137250423, -0.0016921688802540302, -0.0003594190930016339, 0.001180733903311193, 0.0014479069504886866, -9.257894271286204e-05, -1.8533319234848022e-06, 0.0007881934870965779, -0.0005415054038167, -7.207148883026093e-05, -0.00011334879673086107, 0.0006209452403709292, -0.003848504275083542, -0.0010186414001509547, 6.136673619039357e-06, -0.0028464957140386105, 0.00025377055862918496, -0.005666001699864864, 4.3064006604254246e-05, -5.488595343194902e-05, 0.0008505114237777889], [-0.002545000985264778, -0.0027210500556975603, -0.00014991081843618304, -3.384681804163847e-06, 0.002353992313146591, -0.0006728011649101973, -2.3161072022048756e-05, 0.00017335712618660182, 1.7328657122561708e-06, -0.00017157003458123654, -7.106470002327114e-05, 0.0014961481792852283, -5.272163252811879e-05, -0.0010841726325452328, -0.00015015080862212926, -0.0013274990487843752, -2.809555189742241e-05, 0.0006870487122796476, -0.0002630190283525735, -0.0007783286273479462, 0.0001152374898083508, -7.088816346367821e-06, -0.0005491168121807277, 0.0019227389711886644, 0.00020703482732642442, -0.0003734113706741482, 0.0040183039382100105, 0.00036047189496457577, -0.002502910327166319, -4.744350917462725e-06, 0.000876931706443429, -0.0027325423434376717], [-0.7414941787719727, -0.0034046336077153683, -0.004336684010922909, -0.0006184614030644298, 0.0019763316959142685, -0.0003586398670449853, -0.0005794240278191864, -0.026898693293333054, -0.00044032992445863783, -0.0012653276789933443, 5.610945663647726e-05, -0.36981186270713806, -0.04456772282719612, -0.00824214518070221, 0.0012678469065576792, -0.0016541180666536093, -0.0008060864056460559, 0.008217801339924335, 0.004373424220830202, -0.007810606155544519, 0.0017087426967918873, -0.000817769265267998, 0.004640387371182442, 0.4007718563079834, -0.0009576545562595129, 0.02448480762541294, -0.0026557904202491045, 0.0026173850055783987, 1.1649153232574463, 0.00037706168950535357, 0.003147861920297146, -0.003520580939948559], [-0.08628376573324203, -0.010736875236034393, -7.624906720593572e-05, -0.00035061611561104655, 0.011884805746376514, -0.006952635943889618, -0.0007757680723443627, -0.017338506877422333, 3.544596256688237e-05, -0.0030620035249739885, -0.00043358386028558016, 0.08453630656003952, -0.03525590896606445, -0.019398322328925133, -0.005604512989521027, -0.004946061875671148, -0.001021658186800778, 0.01298627257347107, 0.0022116038016974926, -0.01608426868915558, 0.0016292412765324116, -0.0005297912284731865, 0.0008265959331765771, 0.15798068046569824, 0.005419426131993532, 0.011737368069589138, 0.008453276008367538, 0.008275777101516724, -0.1145930290222168, -3.652186205727048e-05, 0.003393542254343629, -0.014529229141771793], [-0.029068809002637863, -0.027313416823744774, -0.0017964924918487668, -5.325047095539048e-05, 0.031453944742679596, -0.019696014001965523, -0.0006460188888013363, 0.012513868510723114, 0.00030650116968899965, -0.0030595397111028433, -0.0021419916301965714, 0.012264414690434933, -0.00568619929254055, -0.02153758332133293, 0.0010877841850742698, -0.0224327240139246, -0.0007372966501861811, 0.0016920947236940265, -0.0045956713147461414, -0.017599232494831085, -0.00014509451284538954, -2.8288151952438056e-05, -0.009180999360978603, 0.015677843242883682, -0.0004015080048702657, -0.0012659970670938492, 0.029260974377393723, 0.009661277756094933, -0.04862484708428383, -0.00045395299093797803, 0.007188916206359863, -0.034093908965587616], [0.002366192638874054, -0.013962719589471817, -0.0013716142857447267, -0.0003250690642744303, 0.01594175212085247, -0.011847585439682007, -0.000231011159485206, 0.0025188783183693886, 0.0002590167860034853, 0.0013431292027235031, -0.0010885086376219988, 0.006065815221518278, 0.00017971795750781894, -0.009217754006385803, 0.000855246908031404, -0.01098957471549511, -0.00022265904408413917, -0.00047621619887650013, -0.003665697295218706, -0.006757442839443684, -0.0001948316494235769, -0.00022728457406628877, -0.00569046288728714, -0.0078572453930974, -0.0009766032453626394, -0.00030911352951079607, 0.015207387506961823, 0.004093685187399387, 0.01119078230112791, -0.0003705841372720897, 0.003914524335414171, -0.017512990161776543], [-0.01614733785390854, -0.014963675290346146, -0.0013323460007086396, -0.00015727290883660316, 0.01934743858873844, -0.013790524564683437, -0.0008045185240916908, 0.0008068102761171758, 0.0001897410984383896, -0.001546200830489397, -0.0014399545034393668, 0.009026242420077324, 0.0017718516755849123, -0.02904832549393177, 0.00016999818035401404, -0.008849124424159527, -0.0011418035719543695, 0.0007116555934771895, -0.002272540470585227, -0.021231746301054955, 0.00015116012946236879, -0.00014967394236009568, -0.004058586899191141, 0.010607617907226086, 0.0008804536191746593, -0.0002992151421494782, 0.01726662367582321, 0.011837223544716835, -0.020088408142328262, -0.00028166957781650126, 0.0026747516822069883, -0.021888388320803642], [-0.0013722144067287445, -0.0015862048603594303, -7.259901030920446e-05, -5.442519068310503e-06, 0.0012059735599905252, -0.0008482041303068399, -4.366455686977133e-05, 0.0005791558069176972, 2.0333582142484374e-05, -4.844241266255267e-05, -8.872550097294152e-05, 0.00022367568453773856, -0.0007896310416981578, -0.001705542323179543, -0.00010316802945453674, -0.0009877613047137856, -3.528397064656019e-05, 0.001276915892958641, -0.00035205407766625285, -0.0013583519030362368, -9.304300874646287e-06, -1.0671674317563884e-06, -0.0005630607483908534, 0.0006558948080055416, 0.0001605165598448366, -0.00063114840304479, 0.0022033718414604664, 0.0006287957075983286, -0.002252323552966118, -3.053466934943572e-05, 0.0002871351025532931, -0.0014091177145019174], [0.02738593891263008, -0.006308424286544323, -0.0007359125884249806, 0.00010175872012041509, 0.0016524599632248282, -0.0012370144249871373, 0.00011716685548890382, -0.004971868824213743, 5.007892468711361e-05, 0.001330602797679603, -0.0002427244617138058, 0.010045305825769901, 0.0025916609447449446, 0.0006598011823371053, -0.0015965558122843504, -0.004156842362135649, 8.774141315370798e-05, 0.20645643770694733, -0.00229085236787796, 0.001518817967735231, -0.0005020711105316877, 0.00015641533536836505, -0.0029442959930747747, -0.019849736243486404, 0.0010619014501571655, -0.21101735532283783, 0.010086043737828732, -0.0007429305696859956, 0.03799884393811226, 6.8200697569409385e-06, 0.0017630696529522538, -0.0014372848672792315], [-0.00880222488194704, -0.006557479500770569, -0.0011635583359748125, 2.1633546566590667e-05, 0.008364861831068993, -0.00822910014539957, -0.00032823364017531276, -0.0017479475354775786, 0.00012016663094982505, 0.0006495966808870435, -0.0009103611810132861, 0.012968958355486393, 0.0038297681603580713, -0.015444503165781498, -0.0009829567279666662, -0.004666632041335106, -0.00043446809286251664, 0.0006884622271172702, -0.0027518144343048334, -0.010105138644576073, -0.0008412931929342449, 7.706069300184026e-05, -0.0035010594874620438, 0.008073619566857815, 0.0008558469126001, 1.8651364371180534e-05, 0.008465209044516087, 0.005746548529714346, 0.0005683726631104946, -0.00012748166045639664, 0.00037243939004838467, -0.010131873190402985], [-0.026520371437072754, -0.021037327125668526, -0.0013930978020653129, -5.5406282626790926e-05, 0.02703849785029888, -0.016856662929058075, -0.0005443285335786641, 0.011478829197585583, 0.00024967739591374993, -0.002564683323726058, -0.0017631890950724483, 0.010078327730298042, -0.006101891398429871, -0.019999952986836433, 0.0006779864197596908, -0.016196846961975098, -0.0006423520972020924, 0.00019217297085560858, -0.00406695157289505, -0.01352041307836771, -0.00026677525602281094, -4.5845299609936774e-05, -0.007567746099084616, 0.014131194911897182, -0.0001649854821152985, -0.0007869426044635475, 0.02634725719690323, 0.008174016140401363, -0.042030416429042816, -0.000375416741007939, 0.010053085163235664, -0.030459530651569366], [-0.0020073838531970978, 6.494723493233323e-05, -0.00012120199244236574, 2.4544498955947347e-05, 0.0013920636847615242, -0.0020282091572880745, -9.30502064875327e-05, 0.0006505163619294763, 4.471618740353733e-05, -0.000192685256479308, -0.00015705883561167866, 0.0052025471813976765, 0.001428526360541582, -0.0050710150972008705, 5.586014594882727e-06, -0.0006165104568935931, -0.0001917918852996081, 0.00017630154616199434, -0.0008296767482534051, -0.004294577986001968, -0.0004754294059239328, 7.075477333273739e-05, -0.0009546738001517951, 0.003133784979581833, 8.060617255978286e-05, 1.6782327293185517e-05, 0.0005899477982893586, 0.001956647029146552, 0.0008378067286685109, -2.4093798856483772e-05, -0.0002589866053313017, -0.0017307540401816368], [1.0936972103081644e-05, -0.0002202655014116317, -8.969413102022372e-06, 2.5324400212412e-06, 0.0001500530051998794, -0.000238607928622514, -4.003617050329922e-06, -6.26856490271166e-05, 5.077469268144341e-06, -1.1915692084585316e-05, -3.049584302061703e-05, -0.0002893292694352567, -0.0005075152148492634, -0.0003931056126020849, -0.00010560327064013109, -0.00016800739103928208, -3.128732487311936e-06, 0.0008964983862824738, -0.00011853802425321192, -0.0002560615539550781, -3.990655386587605e-05, 1.0014354074883158e-06, -0.00017410806322004646, -0.0001283151941606775, 0.00011450994497863576, -0.000549984397366643, 0.0005213924450799823, 0.0001183731437777169, -0.0007631094194948673, -1.0338428182876669e-05, 5.957207577012014e-06, -0.00018935535626951605], [-0.011556291952729225, -0.008673124946653843, -0.0011803533416241407, -4.5737731852568686e-05, 0.011958129703998566, -0.011499278247356415, -0.0005939358379691839, -0.00037253962364047766, 0.00016638790839351714, -0.0004411815316416323, -0.001180688850581646, 0.01367112621665001, 0.00422271341085434, -0.022832807153463364, -0.0008232365362346172, -0.006241624243557453, -0.0008606425253674388, 0.0003625448443926871, -0.002862633904442191, -0.017692988738417625, -0.0007523405365645885, 1.1515323421917856e-05, -0.0038862430956214666, 0.010875941254198551, 0.0010647785384207964, 2.248153032269329e-05, 0.010792907327413559, 0.009561286307871342, -0.004781613126397133, -0.00018788430315908045, 0.0005635766428895295, -0.013997765257954597], [-1.5194438695907593, 0.01736111380159855, 0.005462608765810728, 0.0004938652855344117, -0.0269437488168478, 0.027501583099365234, 0.0021921051666140556, 0.011815857142210007, -0.0005817069322802126, -0.0030563899781554937, 0.003344848519191146, 0.2309289127588272, 0.01415740605443716, 0.04953024908900261, 0.004504762589931488, 0.022146902978420258, 0.002725942526012659, -0.01239904947578907, 0.011398251168429852, 0.04477732256054878, 0.0034927011001855135, 0.0006508138030767441, 0.015890680253505707, 0.17617104947566986, -0.004116902593523264, -0.012469176203012466, -0.027254687622189522, -0.024333501234650612, -0.21367451548576355, 0.0009590997360646725, -0.004522139672189951, 0.031090470030903816], [-0.0014308583922684193, 0.012387131340801716, 0.0012170168338343501, 0.0003296078648418188, -0.014087535440921783, 0.01158366072922945, 0.000228581833653152, -0.0019957891199737787, -0.00011380430805729702, -0.0009634100133553147, 0.00103368132840842, -0.003918926231563091, -0.00022499292390421033, 0.010222348384559155, -0.001128093572333455, 0.009477049112319946, 0.00042569043580442667, 0.0007986461860127747, 0.0030502029694616795, 0.0077028293162584305, 0.00028354383539408445, 0.00040970102418214083, 0.004963351879268885, 0.007699020206928253, 0.0011195715051144361, 0.0001351521204924211, -0.01315863337367773, -0.004228045232594013, -0.00786667037755251, 0.0003302769910078496, -0.0031755028758198023, 0.015490512363612652], [0.008360556326806545, 0.013961558230221272, 0.00018570784595794976, 0.00036131415981799364, -0.014625096693634987, 0.008939831517636776, 0.0008363316301256418, -0.009173986501991749, -8.946771413320675e-05, 0.0027917528059333563, 0.0008719567558728158, -0.008857659995555878, 0.007262866944074631, 0.021864991635084152, -0.000354704272467643, 0.007110884878784418, 0.001051721046678722, -0.21506960690021515, -0.0008900259854272008, 0.01916123740375042, -0.001216215081512928, 0.0005622261087410152, 0.0007176219369284809, -0.006734331604093313, -0.0007725290488451719, 0.21239911019802094, -0.01262001320719719, -0.009020919911563396, 0.014499949291348457, 0.00034297749516554177, -0.0034936678130179644, 0.017424089834094048], [0.023165715858340263, 0.020449742674827576, 0.002575392834842205, 0.00027419254183769226, -0.027142353355884552, 0.022381089627742767, 0.0015215888852253556, 0.0008647489594295621, -0.0002944632724393159, 0.0022553526796400547, 0.00252182362601161, -0.006582561414688826, -0.005506378598511219, 0.03998874872922897, -0.0009160979534499347, 0.016907591372728348, 0.0020777408499270678, 0.00010453816503286362, 0.0030953125096857548, 0.03917154669761658, -0.0006071411771699786, 0.00025741622084751725, 0.0061190384440124035, -0.014396405778825283, -0.000294097961159423, 0.0001556574716232717, -0.02294919639825821, -0.02122606709599495, 0.030368398874998093, 0.0004367726796772331, -0.004557638429105282, 0.030316993594169617], [0.013245503418147564, 0.010566230863332748, 0.0006527969380840659, 3.094219573540613e-05, -0.012523656710982323, 0.006962774787098169, 0.00023130621411837637, -0.003096640110015869, -8.780225471127778e-05, 0.0011130428174510598, 0.0006853309459984303, -0.004418783821165562, 0.0034420411102473736, 0.009098384529352188, -0.0006812422070652246, 0.008738009259104729, 0.0002866305585484952, 0.0004965095431543887, 0.001995248720049858, 0.006921389140188694, 0.00013094086898490787, 4.389904279378243e-05, 0.0035783720668405294, -0.006379812024533749, 0.00046340643893927336, 6.978836609050632e-05, -0.015037770383059978, -0.0033515961840748787, 0.01999920979142189, 0.00013943962403573096, -0.0027177727315574884, 0.014336483553051949], [-0.16017009317874908, -0.0033488101325929165, -0.006545953918248415, -0.00015922909369692206, 0.006885731592774391, -0.00643545389175415, -0.0006539719761349261, -0.026665661484003067, 0.00039727616240270436, 0.00094837840879336, -0.0008047433220781386, -0.25558093190193176, -0.21090316772460938, -0.014009600505232811, 0.007587982341647148, -0.006447456311434507, -0.0007264231098815799, 0.08084402233362198, 5.0831615226343274e-05, -0.012503248639404774, 0.0007410009275190532, -0.0001771497627487406, 3.711821045726538e-05, 0.6537342667579651, -0.008164412342011929, 0.1238258108496666, 0.0036976677365601063, 0.0067974296398460865, 0.8328777551651001, -0.0008275439613498747, 0.0025773688685148954, -0.008106463588774204], [-0.0012360807741060853, -0.00040835904655978084, 1.0026918971561827e-05, 2.516854692657944e-06, 3.918201400665566e-05, -0.0001408352836733684, -6.562223006767454e-06, 0.0006860995781607926, 1.1803115739894565e-05, -3.294179623480886e-05, -1.68263322848361e-05, 0.0002898242382798344, 0.00022240864927880466, -0.00040933629497885704, 5.858283111592755e-05, -2.6936582798953168e-05, -8.530150807928294e-06, -0.000339782505761832, 9.425725875189528e-05, -0.00032197393011301756, 6.747664883732796e-05, 7.451390956703108e-06, 7.887385436333716e-05, 0.0005992751102894545, -5.068511381978169e-05, 0.00030300981597974896, 0.0004210717452224344, 0.00012360047549009323, -0.0015355738578364253, -1.3211754776421003e-05, 2.4893171939766034e-05, 2.2075255401432514e-08], [0.0030866656452417374, 0.005005736369639635, 0.00018921979062724859, 7.888482650741935e-05, -0.005140524823218584, 0.0040076253935694695, 0.0003047756908927113, -0.0025444631464779377, -8.499418618157506e-05, 0.000862467975821346, 0.000641007034573704, 0.001839970238506794, 0.0004263074370101094, 0.009140240959823132, 8.914355566957965e-05, 0.0027048029005527496, 0.00036116866976954043, -0.00020895941997878253, 9.036666597239673e-06, 0.006399280391633511, -0.0003860780270770192, 0.00021591476979665458, 0.0005193444085307419, -0.0007737618288956583, -0.00033227342646569014, -0.00019192066974937916, -0.004736561328172684, -0.0034928859677165747, 0.008625687099993229, 0.00013908595428802073, -0.00035263405879959464, 0.0059898062609136105], [-0.02399613708257675, -0.025636281818151474, -0.001791065325960517, -0.0005634876433759928, 0.02431623823940754, -0.02352237142622471, -0.0014741390477865934, 0.006740550510585308, 0.0003020484291482717, -0.0026132301427423954, -0.002507946453988552, 0.004263308364897966, 0.003208052832633257, -0.03212163597345352, -2.5097528123296797e-05, -0.01892142742872238, -0.0019363358151167631, 0.0002234835410490632, -0.0028377848211675882, -0.031039932742714882, 0.0010874213185161352, -0.0007043305085971951, -0.006637841463088989, 0.011474762111902237, 0.0009018266573548317, -0.0007155018392950296, 0.027121158316731453, 0.017612718045711517, -0.041461698710918427, -0.0006095956778153777, 0.0062861633487045765, -0.026222655549645424], [-0.029525289312005043, -0.0016146013513207436, 0.0001401039189659059, -0.00016521976795047522, 0.0004559129010885954, -0.0008597830310463905, -0.000333798467181623, 0.00638557830825448, -6.212964945007116e-05, -0.0007752624223940074, -0.00010962253873003647, 0.02239643782377243, -0.008931863121688366, -0.0009671282605268061, 8.904671994969249e-05, -0.00017678464064374566, -0.0004191405896563083, -0.49326884746551514, 0.0006419054698199034, -0.00225509493611753, 0.00036222062772139907, -0.00023864308604970574, 0.00047743754112161696, -0.008276766166090965, 0.0001937903289217502, 0.5090636610984802, 0.00026352301938459277, 0.0028832736425101757, 0.020661592483520508, -1.4006545825395733e-06, 0.0008864629198797047, 7.11061293259263e-05], [-0.0024572634138166904, -0.0001829485408961773, 6.686910637654364e-06, -2.646782377269119e-06, 0.00011450445163063705, -0.00014492732589133084, 8.927938324632123e-06, -0.0001933004823513329, 4.426433406479191e-07, 2.0831743313465267e-05, 6.229328846529825e-06, -0.0015188308898359537, 0.0003503194893710315, -0.0004285871982574463, -0.00013279204722493887, -3.567454405128956e-05, 8.108700967568439e-06, 0.011578083969652653, 1.7663885955698788e-05, 0.0002537666878197342, 3.925480996258557e-06, 8.002611139090732e-06, 8.598397471359931e-06, 0.001780894584953785, -2.579910506028682e-05, -0.01175860594958067, 8.710823021829128e-05, 5.894854257348925e-05, 0.0006176994065754116, -9.498949111730326e-07, -4.018923209514469e-05, 0.00016429531387984753], [-1.5682664525229484e-05, 2.467808826622786e-06, 2.3398063149215886e-06, 2.8342366675815356e-08, -1.8658715816854965e-06, 1.0416961231385358e-06, -7.212382513444027e-08, 4.079929567524232e-06, -1.1392455689929193e-07, -2.618339067339548e-06, 6.442901394621003e-07, -6.060029045329429e-05, 3.416226172703318e-05, -2.883780325646512e-07, 1.562315787850821e-06, 2.8337080948404036e-06, 1.424362494617526e-08, 4.679484118241817e-05, 9.773950182534463e-08, -1.3097439932607813e-06, -2.973421260321629e-07, 7.428180026636255e-08, -3.144291440548841e-07, -4.791927494807169e-06, -5.144544275026419e-07, -6.151117850095034e-05, -5.256051736068912e-07, 4.282871941541089e-07, -5.8112607803195715e-05, 2.06867639462871e-07, -5.948691068624612e-07, 1.1109800652775448e-06], [-2.405027544227778e-06, 2.0582675119840133e-07, 6.879432135065144e-09, 1.2681811156767253e-08, -2.710296769237175e-07, 7.581843419757206e-08, 1.849370789841487e-08, 2.876936378015671e-07, -4.909587403290061e-09, 1.8743428142897756e-08, 2.8936721463423964e-08, -1.2747170785587514e-06, 5.926457902205584e-07, 3.3768321827665204e-07, 4.6486633209497086e-08, 9.310896587066964e-08, 1.6515073752998433e-08, -3.1079089239938185e-06, 2.853611924535926e-08, 2.807512657909683e-07, -7.223279396839644e-08, 1.601444310495026e-08, 5.537798131172167e-08, 2.132161398549215e-07, 2.0314689663791796e-07, 2.812256525430712e-06, -4.7930967639331357e-08, -1.0758849100511725e-07, 2.5360748168168357e-06, 9.498251962725135e-09, -7.76351143372267e-08, 3.422548218168231e-07], [-0.002051116432994604, -0.00015807522868271917, 1.7164320524898358e-06, 7.296212061191909e-06, 6.275009945966303e-05, 9.566406515659764e-05, -4.736066330224276e-06, -0.00024217128520831466, 4.18923127654125e-06, -2.364163810852915e-05, 1.3929125088907313e-06, -0.0020726346410810947, 0.0003387334290891886, -0.00019875586440321058, 3.845052560791373e-07, -6.729004962835461e-05, -1.021732168737799e-05, 0.014295333065092564, 1.720590989862103e-05, -0.00029900294612161815, 5.394894287746865e-06, -8.821654773782939e-06, -3.0341634555952623e-05, 0.0012796606170013547, 8.41590590425767e-05, -0.01457385066896677, -0.00010741636651800945, 6.372592179104686e-05, -0.0002977500844281167, 7.51160678191809e-06, 3.8072550523793325e-05, -1.1688796803355217e-05], [-0.0006626868853345513, -0.00015102516044862568, 4.806545348401414e-07, -1.9776148292294238e-06, 4.9658017815090716e-05, 7.989210280356929e-05, -4.908401933789719e-06, -0.0001100407971534878, -8.401157742810028e-07, 9.864518688118551e-06, 1.2902997696073726e-05, -0.0009979611495509744, 0.0003771662013605237, -5.177253478905186e-05, -1.3902310456614941e-05, 1.4422783351619728e-05, 4.215949047647882e-06, 0.0062239812687039375, -2.0180905266897753e-05, -8.519687980879098e-05, -1.2413333024596795e-05, -2.2904669094714336e-06, -4.426995656103827e-05, 0.00046088561066426337, -5.050765321357176e-05, -0.006133546587079763, 0.00016416999278590083, 1.6132413293235004e-05, -0.0009832069044932723, -1.45361650538689e-06, 2.4623528588563204e-05, -5.3362986363936216e-05], [-9.011889233079273e-06, -3.80793707677185e-08, 1.0931616145626322e-07, 2.3797170456418826e-08, 2.1922539872321067e-07, 3.674055619740102e-07, 1.0961254304220347e-07, -1.4543265933752991e-06, -2.8671436780314252e-08, -1.1825417800537252e-07, 4.0024961123208413e-08, -4.998048098059371e-06, 5.187704118725378e-06, 2.6416953460284276e-06, -5.9500568028170164e-08, 2.0133526845711458e-08, 8.300281706397072e-08, 7.333734174608253e-06, 4.822297228201933e-09, 1.8420112155581592e-06, 8.147548413717232e-09, 2.8862977785593102e-08, 1.1782214670574831e-07, 3.505374934320571e-06, -2.1898175361911854e-07, -4.996137249690946e-06, -6.431935162254376e-08, -8.990816695586545e-07, 1.2885756405012216e-05, 4.245015361448168e-08, -2.010091435522554e-07, -3.103856442976394e-07], [-0.0007380658062174916, 0.0003283832920715213, -0.00019956284086219966, 3.768668102566153e-05, -0.00015697556955274194, -0.0017056858632713556, 9.883864549919963e-06, 0.0024659116752445698, 2.845954440999776e-06, 0.00040577672189101577, 2.4879307602532208e-05, -0.00159974186681211, -0.0015890963841229677, -5.275476723909378e-06, -0.0009349935571663082, -0.0006261984235607088, 0.00012706048437394202, 0.021476037800312042, 2.370946458540857e-05, 0.00038435409078374505, -0.00011257870210101828, -4.229671321809292e-05, 0.00039076118264347315, 0.0011431219754740596, 0.0005094443913549185, -0.0224924273788929, -0.00013213760394137353, 0.001569925108924508, -0.0034113959409296513, 3.0681527277920395e-05, 0.000356315344106406, -0.0009236034238711], [-1.0380572348367423e-06, 1.3127868214724003e-07, 1.0961873186943194e-08, -4.3035273122882245e-09, -1.0638991909672768e-07, 3.4975478513388225e-08, 4.37726077606726e-09, 3.569592479379935e-07, 1.6417834869386638e-09, -5.51004220028517e-08, 7.813030222791895e-09, -2.2136222810331674e-07, 5.474133217830968e-07, 1.1894375262500034e-08, -1.1710899627814797e-07, -2.5058653818632592e-08, -3.4961171735403695e-09, -1.4106753951637074e-06, 7.3061015015696285e-09, 8.128363049308973e-08, 2.7497392807163124e-08, -2.0519457244461137e-09, 4.1769411041059357e-08, 9.476387390350283e-07, 6.330442658963875e-08, 4.603190291163628e-07, -3.5427484590400127e-07, -6.687510278879927e-08, -5.696522862308484e-07, 4.989548774148034e-10, 3.2498292057425715e-08, 1.2334719201589905e-07], [-0.00014345721865538508, -1.4557501344825141e-05, 1.7382956229994306e-07, -2.809927934777079e-07, -1.0817098882398568e-05, 3.845441369776381e-06, -5.814748647026136e-07, 1.2164056897745468e-05, -2.4371959739255544e-07, 2.712838522711536e-06, 4.465404117581784e-07, -0.00013663707068189979, 8.925001020543277e-05, 1.4572919099009596e-05, -3.3422511478420347e-06, -6.818142537667882e-06, -1.8161942705319234e-07, 0.0005510741611942649, 4.237425628161873e-07, -4.150610038777813e-06, 1.5045388863654807e-06, -2.5103386747105105e-07, -2.6303628146706615e-06, -2.7808448066934943e-05, 3.7828845051990356e-06, -0.000617287412751466, 4.242675913701532e-06, 8.079705366981216e-07, 0.00020899968512821943, 2.4203927750932053e-07, 3.6988403735449538e-06, 1.3128724276612047e-05], [1.275032900593942e-06, 1.2083991123290616e-06, 2.9498878006961604e-07, 9.774581144483818e-10, -2.374460166265635e-07, 2.970003606606042e-06, 7.800533552426714e-08, 2.3146035346144345e-06, -8.329168821319399e-08, -3.4300711604373646e-07, 3.13477045210675e-07, -2.621666908453335e-06, -6.718514669046272e-07, 3.974354285674053e-07, 1.2599965657500434e-06, 6.751337195964879e-07, 3.258079175338935e-07, 2.9247195925563574e-05, 3.407009785405535e-07, -2.1564414964814205e-06, -1.0702981612098483e-08, 8.174840360197777e-08, -1.3587458624897408e-07, 1.4566737718268996e-06, -5.967846732346516e-07, -2.5721472411532886e-05, 5.563065883507079e-07, 4.653705900636851e-07, -1.6893629435799085e-05, 1.4871639564262296e-07, 2.1649255188549432e-07, 1.9053302935390093e-07], [-0.0008790810243226588, 0.00019643109408207238, 0.0002935074735432863, -3.249882138334215e-05, -0.0003226842964068055, 0.0003317275841254741, -2.9908736905781552e-05, 0.005541169084608555, -1.2532531400211155e-05, -0.00019499156042002141, 8.337532926816493e-05, -0.0018780156970024109, 0.0034587399568408728, 0.000859247928019613, 0.0003003946621902287, 0.00047902637743391097, -1.8611081031849608e-05, -0.2644106149673462, 9.907514322549105e-05, 0.0004035965248476714, -8.21702997200191e-07, -4.317992534197401e-06, 0.0001488079724367708, 0.007259756326675415, -8.674168202560395e-05, 0.267032265663147, -0.0006599441403523088, 3.386929165571928e-06, 0.004549951292574406, 3.987479431089014e-05, 0.00010603269038256258, 0.00040975998854264617], [-0.004949264694005251, -0.0008384417742490768, 4.207401070743799e-05, -6.157033203635365e-05, 0.0012585022486746311, -0.0012470510555431247, -0.0001350851816823706, 0.0001862592762336135, -7.137766260711942e-06, -0.00033799800439737737, -0.00018428039038553834, 0.00021642896172124892, 0.00042241584742441773, -0.0031901365146040916, -0.0008071017218753695, -0.00048474245704710484, -0.0001909866841742769, 0.00036136474227532744, -4.9262947868555784e-05, -0.003038054332137108, 0.00018176765297539532, -8.962934225564823e-05, -0.00018670008284971118, 0.002952269511297345, 0.0008296207524836063, -0.0007451974670402706, 0.000714221503585577, 0.001526189618743956, -0.003653117222711444, -1.317018541158177e-05, 0.0003407215990591794, -0.001870804699137807], [-0.003865113714709878, -0.0001314723922405392, 6.059338920749724e-05, 2.41532688960433e-07, -0.0003697541542351246, 7.666557212360203e-05, 9.584489816916175e-06, -0.0007289607892744243, 1.2210821296321228e-06, -6.876589759485796e-05, -1.8190787159255706e-05, -0.004154043272137642, 0.0020480111707001925, 0.0017992444336414337, -8.67459166329354e-05, 0.0001952423481270671, -5.382464223657735e-06, 0.01837511546909809, -2.6524758141022176e-05, 0.001572256674990058, -1.653388244449161e-05, 1.177219473902369e-05, 5.640508607029915e-05, 0.0031055917497724295, 0.0001496049080742523, -0.014453582465648651, -6.100362224970013e-05, -0.00014344607188832015, -0.0007988192373886704, 2.2659514797851443e-05, -0.0001246428000740707, 0.0007075521862134337], [5.5928685469552875e-06, -0.00011114805238321424, 5.293349659041269e-06, -2.5955364435503725e-06, -2.2545005776919425e-05, -2.2859792807139456e-05, -8.814600732875988e-06, 8.360575884580612e-05, 2.813029141179868e-06, 1.32983968796907e-05, -6.533218765980564e-07, -0.0002098750846926123, -5.464883361128159e-05, -0.00018288983847014606, -4.090072980034165e-05, -7.017819007160142e-05, -4.8726478780736215e-06, 0.00031762156868353486, 1.0821484465850517e-05, -0.00012413621880114079, -8.360121682926547e-06, -6.513700554933166e-06, 3.1240932003129274e-05, 0.000454110762802884, 5.205426714383066e-05, -5.4842603276483715e-05, -8.526658348273486e-05, -3.845525498036295e-06, 0.00035780889447778463, -1.394647824781714e-06, -1.0812746040755883e-05, -0.00014961621491238475], [-8.679169695824385e-05, 4.997501309844665e-05, -2.1596179067273624e-06, 1.909420006995788e-06, -2.5637469661887735e-05, -1.203763167723082e-05, 6.107350145612145e-06, 0.0001773512631189078, 1.0069176141769276e-06, 1.134681861003628e-05, 2.2852491383673623e-06, -0.0011423026444390416, 0.0005117508117109537, -0.000144171470310539, -1.6411548131145537e-05, -2.687583037186414e-05, 5.779065759270452e-07, 0.005726970732212067, 9.02602005226072e-06, 0.00011500874097691849, 6.376878445735201e-06, 2.9383986657194328e-06, -3.529286914272234e-06, -0.00019010243704542518, 5.689836689271033e-05, -0.005796790588647127, 4.58130452898331e-05, -4.046240064781159e-06, -0.0011634230613708496, 8.705442269274499e-07, 1.2420802704582456e-05, 5.9520498325582594e-05], [-1.4989164810685907e-05, -1.4145604154691682e-07, 1.4092405820065323e-07, 2.785841601848915e-08, -1.2731223932860303e-06, 9.024111022881698e-07, 6.081310033323462e-08, 8.263805284514092e-08, -5.369594902049357e-08, -2.0532471012302267e-07, 1.0874665434812414e-07, -6.6525076363177504e-06, 5.964024239801802e-06, 6.706004000989196e-07, 6.04034084972227e-07, -5.1654325261552e-08, 1.4013905058618548e-07, 1.628442078072112e-05, 4.775102269150011e-08, 1.0880320360229234e-06, -2.4168315349015757e-07, 3.853617869253867e-08, -2.4575655288572307e-07, 2.827817070283345e-06, -6.431723704736214e-07, -1.3387400031206198e-05, -2.814298341036192e-07, -4.194627649667382e-07, 1.4344310329761356e-05, 4.743962733755325e-08, -2.699622143609304e-07, 1.2604017456396832e-06], [0.0027749394066631794, 0.0010607786243781447, 0.0013182529946789145, -9.155277803074569e-05, -0.0027470728382468224, 0.006902017630636692, 0.00014817806368228048, 0.011034741066396236, -9.952848631655797e-05, -0.002266222843900323, 0.000810303958132863, 0.005292796995490789, 0.00566139305010438, 0.004479626193642616, 0.0026621748693287373, 0.00402193795889616, 0.00019990552391391248, -0.264425128698349, 0.004179099574685097, 0.0019755875691771507, 0.0015952165704220533, -0.0001963790855370462, 0.0046538920141756535, 0.06437619775533676, -0.0019246672745794058, 0.2681483030319214, -0.0047831605188548565, -0.0035588587634265423, -0.030236171558499336, 4.2562107410049066e-05, 0.0004594444762915373, 0.002897072583436966], [-0.0001048444100888446, -5.941771178186173e-06, -2.2259957859205315e-06, -4.807042159882258e-07, -2.102748112520203e-05, 3.273675247328356e-06, -6.591233159269905e-07, -0.00010981434024870396, 3.4376421353954356e-07, 4.821019047085429e-06, -1.7715378817229066e-06, -0.0006930083618499339, 0.00027659640181809664, 1.458879341953434e-05, 6.125381332822144e-06, -2.183166088798316e-06, 4.673759690376755e-08, 0.002083336701616645, 2.1322617612895556e-05, -0.000102399499155581, 7.597276635351591e-06, 1.3802016383124283e-06, 2.3772941858624108e-05, -7.327387720579281e-05, -1.2171456546639092e-05, -0.0021707341074943542, 1.5601946870447136e-05, 3.690656740218401e-07, -0.0004179244861006737, 1.0135229331353912e-06, 2.6523316591919865e-06, 3.1090272386791185e-05], [-0.0030176418367773294, -6.104810017859563e-05, 4.361847823020071e-05, 4.406113021104829e-06, 0.00014115517842583358, -8.794091991148889e-05, 2.187753671023529e-05, -0.0009723008843138814, -1.4141217434371356e-05, -6.594871956622228e-05, 8.294906365335919e-06, -0.002912275493144989, 0.0016900943592190742, 0.0010331489611417055, -4.321726009948179e-05, 0.00011171594087500125, -1.4874476619297639e-05, 0.011101953685283661, 4.855919542023912e-07, 0.0009659880888648331, -1.4384500900632702e-05, 6.354836841637734e-06, -3.089256279054098e-05, 0.0027456386014819145, 0.00010019419278251007, -0.008593378588557243, -0.00013471137208398432, -0.0001804754720069468, -0.0008759610936976969, 1.6581234376644716e-05, -5.497418169397861e-05, 0.0003646144177764654], [-5.150079232407734e-05, -4.663647814595606e-07, -5.802288569611846e-07, 1.6567115324050974e-07, -3.7462866657733684e-06, -7.246906534419395e-06, 4.301684271013073e-07, 5.607240836980054e-06, 1.2051798137235892e-07, -1.0748531167337205e-06, -1.5768637240398675e-07, -8.521595736965537e-05, 3.87455293093808e-05, 5.8788118622032925e-06, 4.687765795097221e-06, -2.654280251590535e-06, 1.8127619227925607e-07, 0.0002888029848691076, 1.3877220226277132e-06, 1.0448411558172666e-05, 2.3701494455963257e-07, -3.7535394881160755e-07, 1.6565453506700578e-06, 1.1344256563461386e-05, 1.2277987480047159e-06, -0.0002992156078107655, -3.5106950235785916e-08, 5.220605089562014e-06, 2.0215804397594184e-05, 8.889458058547461e-09, 1.3139494967617793e-06, -1.0798684343171772e-05], [-5.660928763973061e-06, 3.12081198217129e-07, -4.468137859703347e-09, 2.5916772727896387e-08, -1.6817025993987045e-07, 2.501355709227937e-07, 2.6361266947105833e-08, -1.3289724165588268e-06, -1.2905990942613244e-08, 1.44436640425738e-08, 6.971704102909371e-09, -2.6198208615824115e-06, 1.4214765542419627e-06, 5.784728500657366e-07, -5.81914093800151e-07, 1.918396606015449e-07, 5.613600606579894e-08, -5.887502993573435e-06, 2.1476074252291255e-08, 5.686501935997512e-07, -1.2980348174096434e-07, 2.759943562580247e-08, -5.102887712382653e-08, 1.1194574653927702e-06, 4.575461503009137e-07, 5.1356014409975614e-06, -4.704403977484617e-07, -2.1097255853419483e-07, 5.172593319002772e-06, 1.835556595608523e-08, -1.8698632686664496e-07, 8.635606718598865e-08], [-9.633966692490503e-05, 1.0815871064551175e-05, -1.4427439509745454e-06, 7.86601390245778e-07, 3.810119233094156e-05, -8.086963498499244e-05, -4.44375655206386e-06, 3.28376772813499e-05, -5.807912657473935e-07, 4.7467287913605105e-06, -1.3488122931448743e-05, -0.0009265350527130067, 0.00027995603159070015, -4.343704495113343e-05, -4.470388012123294e-05, -7.807626388967037e-06, -8.945510671765078e-06, 0.002921589184552431, 3.4321248676860705e-05, 2.8270442271605134e-05, 1.2977137885172851e-05, -6.182148695188516e-07, 4.412550697452389e-05, -9.014025999931619e-05, 5.752082870458253e-05, -0.003002460580319166, 1.6470090486109257e-05, 8.524152508471161e-05, -0.0007787426002323627, 1.6601111383351963e-06, 1.799545771064004e-06, -4.431032721186057e-05], [-0.005876258015632629, -0.0014221732271835208, 6.456296250689775e-05, 2.732849861786235e-05, 0.0012595215812325478, -0.0009443319868296385, -3.4220964153064415e-05, 0.002011578995734453, 5.154645623406395e-05, -0.0001290338404942304, -2.9388171242317185e-05, -0.026044152677059174, -0.010563833639025688, -0.0005588586209341884, 0.0002337890473427251, -0.0008534073131158948, -2.219334419351071e-05, -0.13464206457138062, -0.0002476376248523593, -0.0010714393574744463, -1.7374732124153525e-05, 2.215918902948033e-05, -0.0005086238961666822, -0.01314527727663517, -9.139845496974885e-05, 0.1419910043478012, 0.0018658274784684181, 0.0007506022229790688, -0.024786092340946198, -5.98796468693763e-05, 6.254510662984103e-05, -0.0009759237291291356], [-5.116319516673684e-05, -9.031562512973323e-05, 4.9098252929979935e-06, 5.3619860409526154e-06, 0.00011640217417152599, -7.677193934796378e-05, 6.579056844202569e-06, -0.00021362370171118528, -4.860521585214883e-08, 8.770883141551167e-06, -4.22513039666228e-07, -0.000335046264808625, -1.2503001926233992e-05, -7.700981950620189e-05, -5.088291072752327e-05, -1.2270629667909816e-05, -1.1065691069234163e-05, -0.000250349345151335, 9.80121512839105e-06, 0.00014680155436508358, -2.5453341550019104e-06, 4.637873644242063e-06, 1.2755463103530928e-05, 0.0005188267678022385, 5.2059487643418834e-05, 0.0005232624243944883, -0.00013796929852105677, -5.330975545803085e-05, 0.0002723291690926999, 9.562477316649165e-07, 9.529649105388671e-06, -0.00011538233229657635], [-0.030082596465945244, 0.013889098539948463, -0.00037236386560834944, 0.0006323301349766552, -0.01584080420434475, 0.011879509314894676, 0.0012369623873382807, -0.02236853912472725, -8.880959649104625e-05, 0.005486661568284035, 0.0009648881969042122, -0.015015504322946072, -0.00418386934325099, 0.026800110936164856, -0.008989480324089527, 0.006541895680129528, 0.0017313166754320264, -0.2716953158378601, -0.005829751491546631, 0.023724934086203575, -0.003628315171226859, 0.0008551227510906756, -0.004358500707894564, -0.11922618746757507, 0.007389740087091923, 0.26972249150276184, -0.010529332794249058, -0.01314619742333889, 0.05980014055967331, 0.00043386092875152826, -0.005061873700469732, 0.016262561082839966], [-0.0009746233699843287, -6.865656177978963e-05, -3.9105194446165115e-05, 1.998617790377466e-06, 8.095722296275198e-05, 0.00010790043597808108, 1.4598300367651973e-05, 0.00020099309040233493, -6.463770660047885e-06, 2.773305823211558e-05, -3.287049912614748e-05, -0.002499181544408202, 0.0003127281670458615, -0.00011830047878902406, 0.0001384731149300933, -8.353007433470339e-05, -1.1269128663116135e-05, 0.015437629073858261, -4.896178324997891e-06, -0.0004799140733666718, -1.4595048924093135e-05, -2.440023308736272e-06, 1.6289566701743752e-05, -2.03163072001189e-05, -6.44823448965326e-05, -0.015753909945487976, -1.7939179087989032e-05, -9.633855370339006e-05, -0.0016413613921031356, 7.0366777435992844e-06, 1.455618257750757e-05, 3.847598418360576e-05], [-0.0004117738571949303, -4.111522139282897e-05, 1.1248110240558162e-05, 1.552509274915792e-06, 4.1011116991285235e-05, 9.893472451949492e-06, 1.0403397027403116e-05, 0.0001431042473996058, -2.1072653453302337e-06, -1.3634321476274636e-05, -4.7855164666543715e-06, -0.000603525317274034, 0.0006584399961866438, 9.835686796577647e-05, 1.5105288184713572e-06, -2.9683229513466358e-05, 3.699379703903105e-06, 0.0025406505446881056, -7.0777077780803666e-06, 0.00021408908651210368, -3.4190268252132228e-06, 1.1677534530463163e-06, -1.8907387129729614e-05, -0.0002696842420846224, 1.0093730452354066e-05, -0.001880378695204854, 4.992785397917032e-05, -9.933295950759202e-05, 0.000662364240270108, 6.305852366494946e-06, -7.885619197622873e-06, -5.663667980115861e-05], [0.0072583165019750595, 0.001511958776973188, -1.4476830983767286e-05, 2.678195778571535e-05, -0.001483564730733633, 0.0010107671841979027, 1.7112148270825855e-05, 0.00974678061902523, 5.7644421758595854e-05, -6.717182986903936e-05, 0.0001411171688232571, 0.003948636818677187, 0.0017038863152265549, 0.0031587393023073673, 0.0021429609041661024, 0.0009724639821797609, 5.697614687960595e-05, -0.458063542842865, 0.0005395193584263325, 0.0023264437913894653, 0.00033700084895826876, 4.722525045508519e-05, 0.0008468004525639117, -0.0008662519976496696, -0.0018279945943504572, 0.46190544962882996, -0.0019546886906027794, -0.00025455307331867516, 0.0006933533004485071, -7.308584463316947e-05, -6.042867244104855e-05, 0.0020569050684571266], [-4.2454655613255454e-07, 2.0515737730875117e-07, 1.8015503755464124e-08, 1.0450085241586748e-11, 2.431916641398857e-07, 1.981287311991764e-07, 1.2832801488116274e-09, 4.070314219006832e-07, 1.9249939420262763e-09, -7.43077350762178e-08, 3.248539925948535e-08, 3.79276059447875e-08, 1.1546451332833385e-06, 5.143413659425278e-07, 1.3723915515129192e-07, 3.661779501840101e-08, 1.4370778345096369e-08, 3.6911029610564583e-07, 5.843674344419014e-08, 4.275253786545363e-07, -5.372429612293672e-09, 2.7581861239411865e-09, 3.070715948183533e-08, 9.608634172764141e-07, 3.265484593839574e-08, -2.537373802624643e-06, -3.324330464238301e-07, -1.3540302745695953e-07, -1.2778587006323505e-06, -1.903986301954319e-09, -1.0292319529980887e-07, -3.4383327829345944e-07], [-6.44200699753128e-05, 1.0164354534936137e-05, 1.427434312972764e-06, 3.919938365015696e-07, -3.6117307899985462e-06, 2.4407950149907265e-06, 1.0386822850705357e-06, -4.5930071792099625e-05, 2.666714635779499e-07, -6.897687399032293e-08, -1.8973569240188226e-06, -2.9596261811093427e-05, -1.715067628538236e-05, 1.625235927349422e-05, -1.780800630513113e-06, 5.043064447818324e-06, 8.947343985710177e-07, 0.00023447180865332484, 6.360372935887426e-06, 1.6783415048848838e-05, 2.2425103907153243e-06, -9.44946805248037e-08, 8.855175110511482e-06, 6.692385068163276e-05, -6.6923084887093864e-06, -0.00025070132687687874, -9.193600817525294e-06, 3.810112048086012e-08, -0.00018232088768854737, -2.666891418812156e-07, -4.8606198106426746e-06, 4.498869202507194e-06], [-0.0027069991920143366, 0.0001541897072456777, 1.4272161024564411e-05, 1.7719839888741262e-06, -0.00029694184195250273, -0.00013927713735029101, -6.51956088404404e-06, -0.00019020400941371918, -8.393942152906675e-06, -2.8834885597461835e-05, 6.293691967584891e-07, -0.0029697881545871496, 0.0009413438383489847, 0.0006532407132908702, 3.962287155445665e-05, 6.018199201207608e-05, -1.1896358046215028e-05, 0.019451498985290527, 3.392595681361854e-05, -0.0005386307020671666, 7.083424861775711e-06, -4.439362783159595e-06, -4.0462582546751946e-05, 0.002364374464377761, -5.3117473726160824e-05, -0.019586659967899323, 0.00014199734141584486, -0.00013547277194447815, -0.0010733422823250294, 1.0918038242380135e-05, 6.649482384091243e-05, 0.000505973061081022]], "lstm.bias_ih_l0": [1.0277611017227173, -0.009024367667734623, -0.0001252754300367087, -2.0763518477906473e-06, 